{"learner":{"attributes":{"scikit_learn":"{\"_estimator_type\": \"regressor\"}"},"feature_names":["Vehicle Make","Vehicle Model","Vehicle Class","WO Reason","Priority Code","Expected Hours","Shop Name","work_order_month"],"feature_types":["int","int","int","int","float","float","int","int"],"gradient_booster":{"model":{"cats":{"enc":[],"feature_segments":[],"sorted_idx":[]},"gbtree_model_param":{"num_parallel_tree":"1","num_trees":"200"},"iteration_indptr":[0,1,2,3,4,5,6,7,8,9,10,11,12,13,14,15,16,17,18,19,20,21,22,23,24,25,26,27,28,29,30,31,32,33,34,35,36,37,38,39,40,41,42,43,44,45,46,47,48,49,50,51,52,53,54,55,56,57,58,59,60,61,62,63,64,65,66,67,68,69,70,71,72,73,74,75,76,77,78,79,80,81,82,83,84,85,86,87,88,89,90,91,92,93,94,95,96,97,98,99,100,101,102,103,104,105,106,107,108,109,110,111,112,113,114,115,116,117,118,119,120,121,122,123,124,125,126,127,128,129,130,131,132,133,134,135,136,137,138,139,140,141,142,143,144,145,146,147,148,149,150,151,152,153,154,155,156,157,158,159,160,161,162,163,164,165,166,167,168,169,170,171,172,173,174,175,176,177,178,179,180,181,182,183,184,185,186,187,188,189,190,191,192,193,194,195,196,197,198,199,200],"tree_info":[0,0,0,0,0,0,0,0,0,0,0,0,0,0,0,0,0,0,0,0,0,0,0,0,0,0,0,0,0,0,0,0,0,0,0,0,0,0,0,0,0,0,0,0,0,0,0,0,0,0,0,0,0,0,0,0,0,0,0,0,0,0,0,0,0,0,0,0,0,0,0,0,0,0,0,0,0,0,0,0,0,0,0,0,0,0,0,0,0,0,0,0,0,0,0,0,0,0,0,0,0,0,0,0,0,0,0,0,0,0,0,0,0,0,0,0,0,0,0,0,0,0,0,0,0,0,0,0,0,0,0,0,0,0,0,0,0,0,0,0,0,0,0,0,0,0,0,0,0,0,0,0,0,0,0,0,0,0,0,0,0,0,0,0,0,0,0,0,0,0,0,0,0,0,0,0,0,0,0,0,0,0,0,0,0,0,0,0,0,0,0,0,0,0,0,0,0,0,0,0],"trees":[{"base_weights":[6.8293936E-8,-6.5084153E-1,5.402519E0,-1.2869552E0,6.7521113E-1,4.051171E0,1.0226875E1,-1.3361964E0,-4.8387323E-2,2.2911519E-1,1.6275895E0,3.2115045E0,5.4265895E0,8.097946E0,1.2174381E1,-9.6039367E-1,-1.5317568E0,3.6584637E-1,-3.1732807E-1,-1.126653E-1,5.2500796E-1,1.2862582E0,1.9215266E0,2.8918033E0,3.8943443E0,4.796412E0,6.053599E0,7.3398986E0,8.498411E0,1.133447E1,1.3895055E1,-1.0702095E0,-6.7906636E-1,-1.5665885E0,-6.0512173E-1,1.3827826E0,2.0014155E-1,-5.1822877E-1,1.8097673E-1,1.5914519E-1,-2.704103E-1,4.895067E-1,1.4946208E0,1.2432324E0,2.3139296E0,1.8828377E0,3.3389869E0,2.666056E0,3.2150908E0,3.8572114E0,5.001737E0,4.6233964E0,5.2009754E0,5.614111E0,6.492549E0,7.4172754E0,4.1069264E0,8.663599E0,6.632448E0,5.326626E-1,1.2087035E1,1.3915416E1,-2.3706108E-2,-5.576542E-2,-1.2564006E-2,-1.9227514E-2,-3.8331043E-2,-8.958882E-2,-7.5283155E-2,7.796692E-2,-3.0631337E-2,8.672155E-3,9.796939E-2,-5.2132804E-2,1.549771E-2,-4.0923357E-2,-1.2891548E-3,2.369023E-2,-6.9158666E-2,-6.298024E-4,1.376674E-2,2.9281596E-2,-1.5213733E-2,3.836171E-2,1.5990237E-2,1.0933825E-1,3.855309E-2,5.7525106E-2,7.0151E-2,4.8242085E-2,1.3156562E-1,9.233352E-2,1.1691761E-1,1.0644479E-1,2.2220401E-1,1.2890033E-1,1.4281419E-1,1.4577489E-1,1.6761659E-1,1.9658491E-1,1.7333083E-1,1.7378803E-1,3.3457443E-1,2.3281007E-1,1.3334924E-1,2.6312608E-1,1.5910251E-1,2.8885853E-1,1.9360664E-1,3.273573E-1,1.8468486E-1,1.5319084E-1,3.715819E-1,1.2851432E-1,2.3945546E-1,4.1299626E-1,4.5448443E-1,7.8075245E-2,3.4511036E-1,6.1417854E-1,4.7862196E-1,6.6107553E-1,7.304608E-1],"categories":[],"categories_nodes":[],"categories_segments":[],"categories_sizes":[],"default_left":[0,0,0,0,0,0,0,0,0,0,0,0,0,0,0,0,0,0,0,0,0,0,0,0,0,0,0,0,0,0,0,0,0,0,0,0,0,0,0,0,0,0,0,0,0,0,0,0,0,0,0,0,0,0,0,0,0,0,0,0,0,0,0,0,0,0,0,0,0,0,0,0,0,0,0,0,0,0,0,0,0,0,0,0,0,0,0,0,0,0,0,0,0,0,0,0,0,0,0,0,0,0,0,0,0,0,0,0,0,0,0,0,0,0,0,0,0,0,0,0,0,0,0],"id":0,"left_children":[1,3,5,7,9,11,13,15,17,19,21,23,25,27,29,31,33,35,37,39,41,43,45,47,49,51,53,55,57,59,61,63,65,67,69,71,73,75,77,79,81,83,85,87,89,91,93,95,97,99,101,103,105,107,109,111,113,115,117,-1,119,121,-1,-1,-1,-1,-1,-1,-1,-1,-1,-1,-1,-1,-1,-1,-1,-1,-1,-1,-1,-1,-1,-1,-1,-1,-1,-1,-1,-1,-1,-1,-1,-1,-1,-1,-1,-1,-1,-1,-1,-1,-1,-1,-1,-1,-1,-1,-1,-1,-1,-1,-1,-1,-1,-1,-1,-1,-1,-1,-1,-1,-1],"loss_changes":[6.4141175E5,1.3732933E5,1.2782325E5,6.7102188E3,2.2423316E4,1.7679031E4,1.7692312E4,7.775328E3,4.689055E2,3.6351904E3,1.6866836E3,2.0663438E3,2.2654688E3,5.608594E2,3.0783438E3,1.118293E3,2.2454062E3,2.7894635E2,2.5557394E2,7.152272E2,6.6245166E2,3.4170312E2,4.896875E2,4.6478125E2,1.0538672E2,1.7900781E2,5.2434375E2,1.4889453E2,3.5464844E2,6.453594E2,2.201875E2,9.618203E2,2.6200244E2,9.175625E2,4.1939514E1,1.614364E2,1.9493637E2,2.6891995E2,3.3684692E2,1.22245056E2,3.0616034E2,8.757759E2,3.388628E2,1.0924609E2,1.3105249E2,1.4075781E2,3.1014526E2,5.670117E1,9.967969E1,7.184375E1,2.2170142E2,1.18578125E2,9.023828E1,3.9233984E2,1.9708594E2,2.0941406E1,7.6077576E0,1.3561719E2,1.4379834E2,0E0,2.3329688E2,1.578125E2,0E0,0E0,0E0,0E0,0E0,0E0,0E0,0E0,0E0,0E0,0E0,0E0,0E0,0E0,0E0,0E0,0E0,0E0,0E0,0E0,0E0,0E0,0E0,0E0,0E0,0E0,0E0,0E0,0E0,0E0,0E0,0E0,0E0,0E0,0E0,0E0,0E0,0E0,0E0,0E0,0E0,0E0,0E0,0E0,0E0,0E0,0E0,0E0,0E0,0E0,0E0,0E0,0E0,0E0,0E0,0E0,0E0,0E0,0E0,0E0,0E0],"parents":[2147483647,0,0,1,1,2,2,3,3,4,4,5,5,6,6,7,7,8,8,9,9,10,10,11,11,12,12,13,13,14,14,15,15,16,16,17,17,18,18,19,19,20,20,21,21,22,22,23,23,24,24,25,25,26,26,27,27,28,28,29,29,30,30,31,31,32,32,33,33,34,34,35,35,36,36,37,37,38,38,39,39,40,40,41,41,42,42,43,43,44,44,45,45,46,46,47,47,48,48,49,49,50,50,51,51,52,52,53,53,54,54,55,55,56,56,57,57,58,58,60,60,61,61],"right_children":[2,4,6,8,10,12,14,16,18,20,22,24,26,28,30,32,34,36,38,40,42,44,46,48,50,52,54,56,58,60,62,64,66,68,70,72,74,76,78,80,82,84,86,88,90,92,94,96,98,100,102,104,106,108,110,112,114,116,118,-1,120,122,-1,-1,-1,-1,-1,-1,-1,-1,-1,-1,-1,-1,-1,-1,-1,-1,-1,-1,-1,-1,-1,-1,-1,-1,-1,-1,-1,-1,-1,-1,-1,-1,-1,-1,-1,-1,-1,-1,-1,-1,-1,-1,-1,-1,-1,-1,-1,-1,-1,-1,-1,-1,-1,-1,-1,-1,-1,-1,-1,-1,-1],"split_conditions":[4.2E0,1.3E0,9.2E0,3E0,2.8E0,6.1E0,1.2E1,2E0,1E0,1.9E0,3.4E0,5.3E0,7.4E0,1E1,1.66E1,3.26E2,1.1E0,2.02E2,2E0,2E0,4E0,4E0,4E0,4.8E0,4E0,7E0,8.1E0,3E0,3.99E2,1.4E1,2.467E2,1.1E0,8.8E1,2E-1,2.7E1,1.26E2,2.5E-1,6E-1,3E0,2.82E2,4.6E1,3E0,2.1E0,3.1E0,3E0,4.1E0,4E0,4.6E0,2E0,3.5E2,6E0,3E0,4.06E2,3.87E2,3E0,1.1E1,1.89E2,1.09E1,4.01E2,5.326626E-1,3.99E2,2.42E2,-2.3706108E-2,-5.576542E-2,-1.2564006E-2,-1.9227514E-2,-3.8331043E-2,-8.958882E-2,-7.5283155E-2,7.796692E-2,-3.0631337E-2,8.672155E-3,9.796939E-2,-5.2132804E-2,1.549771E-2,-4.0923357E-2,-1.2891548E-3,2.369023E-2,-6.9158666E-2,-6.298024E-4,1.376674E-2,2.9281596E-2,-1.5213733E-2,3.836171E-2,1.5990237E-2,1.0933825E-1,3.855309E-2,5.7525106E-2,7.0151E-2,4.8242085E-2,1.3156562E-1,9.233352E-2,1.1691761E-1,1.0644479E-1,2.2220401E-1,1.2890033E-1,1.4281419E-1,1.4577489E-1,1.6761659E-1,1.9658491E-1,1.7333083E-1,1.7378803E-1,3.3457443E-1,2.3281007E-1,1.3334924E-1,2.6312608E-1,1.5910251E-1,2.8885853E-1,1.9360664E-1,3.273573E-1,1.8468486E-1,1.5319084E-1,3.715819E-1,1.2851432E-1,2.3945546E-1,4.1299626E-1,4.5448443E-1,7.8075245E-2,3.4511036E-1,6.1417854E-1,4.7862196E-1,6.6107553E-1,7.304608E-1],"split_indices":[5,5,5,4,5,5,5,6,2,5,5,5,5,5,5,0,5,0,2,6,4,4,4,5,4,5,5,2,0,5,5,5,1,5,0,0,5,5,2,0,0,6,5,5,5,5,5,5,6,0,5,2,0,0,2,1,1,5,0,0,0,0,0,0,0,0,0,0,0,0,0,0,0,0,0,0,0,0,0,0,0,0,0,0,0,0,0,0,0,0,0,0,0,0,0,0,0,0,0,0,0,0,0,0,0,0,0,0,0,0,0,0,0,0,0,0,0,0,0,0,0,0,0],"split_type":[0,0,0,0,0,0,0,0,0,0,0,0,0,0,0,0,0,0,0,0,0,0,0,0,0,0,0,0,0,0,0,0,0,0,0,0,0,0,0,0,0,0,0,0,0,0,0,0,0,0,0,0,0,0,0,0,0,0,0,0,0,0,0,0,0,0,0,0,0,0,0,0,0,0,0,0,0,0,0,0,0,0,0,0,0,0,0,0,0,0,0,0,0,0,0,0,0,0,0,0,0,0,0,0,0,0,0,0,0,0,0,0,0,0,0,0,0,0,0,0,0,0,0],"sum_hessian":[1.82415E5,1.62803E5,1.9612E4,1.10024E5,5.2779E4,1.5322E4,4.29E3,1.05817E5,4.207E3,3.5944E4,1.6835E4,9.516E3,5.806E3,2.052E3,2.238E3,3.622E4,6.9597E4,1.656E3,2.551E3,1.6679E4,1.9265E4,7.792E3,9.043E3,6.485E3,3.031E3,2.9E3,2.906E3,7.16E2,1.336E3,1.509E3,7.29E2,2.6049E4,1.0171E4,6.7075E4,2.522E3,2.31E2,1.425E3,1.818E3,7.33E2,6.125E3,1.0554E4,1.8586E4,6.79E2,7.481E3,3.11E2,8.805E3,2.38E2,3.824E3,2.661E3,2.937E3,9.4E1,2.04E3,8.6E2,1.459E3,1.447E3,6.98E2,1.8E1,1.224E3,1.12E2,8E2,7.09E2,7.28E2,1E0,2.4689E4,1.36E3,2.332E3,7.839E3,1.4277E4,5.2798E4,8E0,2.514E3,7.5E1,1.56E2,1.15E2,1.31E3,1.129E3,6.89E2,6.18E2,1.15E2,2.472E3,3.653E3,4.01E2,1.0153E4,7.048E3,1.1538E4,3.46E2,3.33E2,4.739E3,2.742E3,6E1,2.51E2,8.162E3,6.43E2,1.15E2,1.23E2,2.624E3,1.2E3,8.43E2,1.818E3,2.459E3,4.78E2,5.1E1,4.3E1,2.005E3,3.5E1,8.33E2,2.7E1,1.332E3,1.27E2,1.418E3,2.9E1,3E0,6.95E2,7E0,1.1E1,6.39E2,5.85E2,6E0,1.06E2,6.54E2,5.5E1,3.74E2,3.54E2],"tree_param":{"num_deleted":"0","num_feature":"8","num_nodes":"123","size_leaf_vector":"1"}},{"base_weights":[5.0690986E-5,-6.182944E-1,5.132823E0,-1.2226098E0,6.414709E-1,3.8488243E0,9.716738E0,-1.2693889E0,-4.5972157E-2,2.176658E-1,1.5462601E0,3.0510828E0,5.1555667E0,7.694112E0,1.15669985E1,-9.123775E-1,-1.4551706E0,3.475963E-1,-3.0149606E-1,-1.0703043E-1,4.9876803E-1,1.2219846E0,1.8255097E0,2.7473032E0,3.6999166E0,4.5568633E0,5.751261E0,6.9741488E0,8.074456E0,1.0768823E1,1.3202176E1,-9.522364E-1,-2.0870492E-1,-1.4882615E0,-5.748469E-1,1.3141032E0,1.9010878E-1,-4.9234056E-1,1.7186594E-1,1.5119003E-1,-2.5688845E-1,3.699711E-1,7.587866E-1,1.1810877E0,2.1988094E0,1.7887195E0,3.1734126E0,2.532824E0,3.054454E0,3.6644764E0,4.7570014E0,4.392406E0,4.941417E0,5.3337355E0,6.168275E0,7.0471625E0,3.9209468E0,8.231128E0,6.3045707E0,5.060627E-1,1.1484222E1,1.3221554E1,-2.3113457E-2,-5.2977264E-2,-3.379322E-2,1.737471E-2,-1.9420471E-2,-8.5109696E-2,-7.151907E-2,7.4501716E-2,-2.9100379E-2,8.244254E-3,9.310213E-2,-4.954863E-2,1.47234155E-2,-3.8879E-2,-1.2247922E-3,2.250763E-2,-6.5730534E-2,-5.983266E-4,1.307859E-2,2.7821157E-2,-1.44531205E-2,1.6332947E-2,7.2336346E-2,2.7975425E-2,5.4655403E-2,5.4649454E-2,6.664473E-2,4.586952E-2,1.2501344E-1,8.771741E-2,1.1108082E-1,1.0116843E-1,2.1118341E-1,1.22457765E-1,1.3567942E-1,1.3849477E-1,1.5924038E-1,1.8675965E-1,1.6468237E-1,1.6526572E-1,3.1822592E-1,2.2117539E-1,1.2686698E-1,2.499855E-1,1.514315E-1,2.7442643E-1,1.8400192E-1,3.1100097E-1,1.7575844E-1,1.4744619E-1,3.5302952E-1,1.22891806E-1,2.2848044E-1,3.9237872E-1,4.3179893E-1,7.472917E-2,3.2801607E-1,5.835165E-1,4.5511818E-1,6.629993E-1,2.5023952E-1],"categories":[],"categories_nodes":[],"categories_segments":[],"categories_sizes":[],"default_left":[0,0,0,0,0,0,0,0,0,0,0,0,0,0,0,0,0,0,0,0,0,0,0,0,0,0,0,0,0,0,0,0,0,0,0,0,0,0,0,0,0,0,0,0,0,0,0,0,0,0,0,0,0,0,0,0,0,0,0,0,0,0,0,0,0,0,0,0,0,0,0,0,0,0,0,0,0,0,0,0,0,0,0,0,0,0,0,0,0,0,0,0,0,0,0,0,0,0,0,0,0,0,0,0,0,0,0,0,0,0,0,0,0,0,0,0,0,0,0,0,0,0,0],"id":1,"left_children":[1,3,5,7,9,11,13,15,17,19,21,23,25,27,29,31,33,35,37,39,41,43,45,47,49,51,53,55,57,59,61,63,65,67,69,71,73,75,77,79,81,83,85,87,89,91,93,95,97,99,101,103,105,107,109,111,113,115,117,-1,119,121,-1,-1,-1,-1,-1,-1,-1,-1,-1,-1,-1,-1,-1,-1,-1,-1,-1,-1,-1,-1,-1,-1,-1,-1,-1,-1,-1,-1,-1,-1,-1,-1,-1,-1,-1,-1,-1,-1,-1,-1,-1,-1,-1,-1,-1,-1,-1,-1,-1,-1,-1,-1,-1,-1,-1,-1,-1,-1,-1,-1,-1],"loss_changes":[5.789596E5,1.23942734E5,1.1539959E5,6.055953E3,2.0238377E4,1.5957609E4,1.5969594E4,7.017172E3,4.2328714E2,3.2808555E3,1.5223359E3,1.8656641E3,2.0448281E3,5.058672E2,2.7800625E3,1.0157129E3,2.0265625E3,2.5196672E2,2.3062857E2,6.4549493E2,6.449302E2,3.0872754E2,4.428125E2,4.1954297E2,9.616016E1,1.6176562E2,4.7325E2,1.3220312E2,3.1884375E2,5.833125E2,1.9942188E2,1.0159004E3,1.9434067E2,8.281406E2,3.817218E1,1.4578381E2,1.7605643E2,2.4272238E2,3.0422308E2,1.1032939E2,2.7635828E2,6.0048694E2,4.2450928E2,9.860742E1,1.1823047E2,1.2712695E2,2.801277E2,5.1203125E1,8.9921875E1,6.474219E1,2.006565E2,1.0653125E2,8.086133E1,3.5353516E2,1.7692188E2,1.7644531E1,6.800873E0,1.22453125E2,1.2920264E2,0E0,2.0849219E2,1.6383594E2,0E0,0E0,0E0,0E0,0E0,0E0,0E0,0E0,0E0,0E0,0E0,0E0,0E0,0E0,0E0,0E0,0E0,0E0,0E0,0E0,0E0,0E0,0E0,0E0,0E0,0E0,0E0,0E0,0E0,0E0,0E0,0E0,0E0,0E0,0E0,0E0,0E0,0E0,0E0,0E0,0E0,0E0,0E0,0E0,0E0,0E0,0E0,0E0,0E0,0E0,0E0,0E0,0E0,0E0,0E0,0E0,0E0,0E0,0E0,0E0,0E0],"parents":[2147483647,0,0,1,1,2,2,3,3,4,4,5,5,6,6,7,7,8,8,9,9,10,10,11,11,12,12,13,13,14,14,15,15,16,16,17,17,18,18,19,19,20,20,21,21,22,22,23,23,24,24,25,25,26,26,27,27,28,28,29,29,30,30,31,31,32,32,33,33,34,34,35,35,36,36,37,37,38,38,39,39,40,40,41,41,42,42,43,43,44,44,45,45,46,46,47,47,48,48,49,49,50,50,51,51,52,52,53,53,54,54,55,55,56,56,57,57,58,58,60,60,61,61],"right_children":[2,4,6,8,10,12,14,16,18,20,22,24,26,28,30,32,34,36,38,40,42,44,46,48,50,52,54,56,58,60,62,64,66,68,70,72,74,76,78,80,82,84,86,88,90,92,94,96,98,100,102,104,106,108,110,112,114,116,118,-1,120,122,-1,-1,-1,-1,-1,-1,-1,-1,-1,-1,-1,-1,-1,-1,-1,-1,-1,-1,-1,-1,-1,-1,-1,-1,-1,-1,-1,-1,-1,-1,-1,-1,-1,-1,-1,-1,-1,-1,-1,-1,-1,-1,-1,-1,-1,-1,-1,-1,-1,-1,-1,-1,-1,-1,-1,-1,-1,-1,-1,-1,-1],"split_conditions":[4.2E0,1.3E0,9.2E0,3E0,2.8E0,6.1E0,1.2E1,2E0,1E0,1.9E0,3.4E0,5.3E0,7.4E0,1E1,1.66E1,1.1E0,1.1E0,2.02E2,2E0,2E0,2.4E0,4E0,4E0,4.8E0,4E0,7E0,8.1E0,3E0,3.99E2,1.4E1,2.467E2,3.26E2,1.2E0,2E-1,2.7E1,1.26E2,2.5E-1,6E-1,3E0,2.82E2,4.6E1,4E0,1.86E2,3.1E0,3E0,4.1E0,4E0,4.6E0,2E0,3.5E2,6E0,3E0,4.06E2,3.87E2,3E0,1.1E1,1.89E2,1.09E1,4.01E2,5.060627E-1,3.99E2,1.239E3,-2.3113457E-2,-5.2977264E-2,-3.379322E-2,1.737471E-2,-1.9420471E-2,-8.5109696E-2,-7.151907E-2,7.4501716E-2,-2.9100379E-2,8.244254E-3,9.310213E-2,-4.954863E-2,1.47234155E-2,-3.8879E-2,-1.2247922E-3,2.250763E-2,-6.5730534E-2,-5.983266E-4,1.307859E-2,2.7821157E-2,-1.44531205E-2,1.6332947E-2,7.2336346E-2,2.7975425E-2,5.4655403E-2,5.4649454E-2,6.664473E-2,4.586952E-2,1.2501344E-1,8.771741E-2,1.1108082E-1,1.0116843E-1,2.1118341E-1,1.22457765E-1,1.3567942E-1,1.3849477E-1,1.5924038E-1,1.8675965E-1,1.6468237E-1,1.6526572E-1,3.1822592E-1,2.2117539E-1,1.2686698E-1,2.499855E-1,1.514315E-1,2.7442643E-1,1.8400192E-1,3.1100097E-1,1.7575844E-1,1.4744619E-1,3.5302952E-1,1.22891806E-1,2.2848044E-1,3.9237872E-1,4.3179893E-1,7.472917E-2,3.2801607E-1,5.835165E-1,4.5511818E-1,6.629993E-1,2.5023952E-1],"split_indices":[5,5,5,4,5,5,5,6,2,5,5,5,5,5,5,5,5,0,2,6,5,4,4,5,4,5,5,2,0,5,5,0,5,5,0,0,5,5,2,0,0,4,0,5,5,5,5,5,6,0,5,2,0,0,2,1,1,5,0,0,0,1,0,0,0,0,0,0,0,0,0,0,0,0,0,0,0,0,0,0,0,0,0,0,0,0,0,0,0,0,0,0,0,0,0,0,0,0,0,0,0,0,0,0,0,0,0,0,0,0,0,0,0,0,0,0,0,0,0,0,0,0,0],"split_type":[0,0,0,0,0,0,0,0,0,0,0,0,0,0,0,0,0,0,0,0,0,0,0,0,0,0,0,0,0,0,0,0,0,0,0,0,0,0,0,0,0,0,0,0,0,0,0,0,0,0,0,0,0,0,0,0,0,0,0,0,0,0,0,0,0,0,0,0,0,0,0,0,0,0,0,0,0,0,0,0,0,0,0,0,0,0,0,0,0,0,0,0,0,0,0,0,0,0,0,0,0,0,0,0,0,0,0,0,0,0,0,0,0,0,0,0,0,0,0,0,0,0,0],"sum_hessian":[1.82415E5,1.62803E5,1.9612E4,1.10024E5,5.2779E4,1.5322E4,4.29E3,1.05817E5,4.207E3,3.5944E4,1.6835E4,9.516E3,5.806E3,2.052E3,2.238E3,3.622E4,6.9597E4,1.656E3,2.551E3,1.6679E4,1.9265E4,7.792E3,9.043E3,6.485E3,3.031E3,2.9E3,2.906E3,7.16E2,1.336E3,1.509E3,7.29E2,3.4278E4,1.942E3,6.7075E4,2.522E3,2.31E2,1.425E3,1.818E3,7.33E2,6.125E3,1.0554E4,1.2885E4,6.38E3,7.481E3,3.11E2,8.805E3,2.38E2,3.824E3,2.661E3,2.937E3,9.4E1,2.04E3,8.6E2,1.459E3,1.447E3,6.98E2,1.8E1,1.224E3,1.12E2,8E2,7.09E2,7.28E2,1E0,2.4689E4,9.589E3,4.74E2,1.468E3,1.4277E4,5.2798E4,8E0,2.514E3,7.5E1,1.56E2,1.15E2,1.31E3,1.129E3,6.89E2,6.18E2,1.15E2,2.472E3,3.653E3,4.01E2,1.0153E4,1.2388E4,4.97E2,3.999E3,2.381E3,4.739E3,2.742E3,6E1,2.51E2,8.162E3,6.43E2,1.15E2,1.23E2,2.624E3,1.2E3,8.43E2,1.818E3,2.459E3,4.78E2,5.1E1,4.3E1,2.005E3,3.5E1,8.33E2,2.7E1,1.332E3,1.27E2,1.418E3,2.9E1,3E0,6.95E2,7E0,1.1E1,6.39E2,5.85E2,6E0,1.06E2,6.54E2,5.5E1,7.24E2,4E0],"tree_param":{"num_deleted":"0","num_feature":"8","num_nodes":"123","size_leaf_vector":"1"}},{"base_weights":[9.410521E-5,-5.873749E-1,4.8765693E0,-1.1614813E0,6.0941637E-1,3.6565843E0,9.231953E0,-1.2059213E0,-4.3677535E-2,2.06788E-1,1.468995E0,2.898675E0,4.8980803E0,7.310419E0,1.0989737E1,-8.66761E-1,-1.3824137E0,3.3025664E-1,-2.8645387E-1,-1.0167731E-1,4.738385E-1,1.160923E0,1.7342908E0,2.4676752E0,3.311685E0,4.3292785E0,5.464023E0,6.6266294E0,7.6716504E0,1.0231404E1,1.2543286E1,-9.046271E-1,-1.9827071E-1,-1.4138508E0,-5.4608655E-1,1.2488348E0,1.8057893E-1,-4.6774557E-1,1.6321374E-1,1.4363259E-1,-2.4404271E-1,7.0362896E-1,3.411364E-1,1.1220496E0,2.0894167E0,1.6993062E0,3.016049E0,2.326744E0,2.648076E0,2.9719496E0,3.515196E0,4.172956E0,4.6948123E0,5.067363E0,5.860197E0,6.6955204E0,3.7433927E0,7.820244E0,5.9929066E0,9.615823E0,1.0911474E1,1.25617285E1,-2.253562E-2,-5.0328504E-2,-3.2103732E-2,1.6507803E-2,-1.8450106E-2,-8.0854505E-2,-6.7943186E-2,-3.0182509E-2,-1.4296162E-2,7.837465E-3,8.8476665E-2,-4.7092553E-2,1.3987807E-2,-3.6936767E-2,-1.1636427E-3,2.1384066E-2,-6.2472343E-2,-5.6842266E-4,1.24248415E-2,2.6433563E-2,-1.3730533E-2,2.058878E-2,4.7728557E-2,1.4059394E-2,6.812071E-2,5.1917564E-2,6.3313715E-2,4.361364E-2,1.1878758E-1,8.333208E-2,1.0553539E-1,9.615361E-2,2.0070939E-1,1.17328666E-1,7.611807E-2,1.315148E-1,2.0453158E-1,1.3471797E-1,1.5628278E-1,1.7406861E-1,2.2621205E-1,2.1012211E-1,1.2069984E-1,2.3750122E-1,1.4413033E-1,2.6071543E-1,1.7487371E-1,2.9546186E-1,1.6726345E-1,3.4723493E-1,3.1589925E-1,1.1751528E-1,2.180084E-1,3.7279043E-1,4.1024587E-1,7.152649E-2,3.1176856E-1,4.489073E-1,4.8997122E-1,5.543852E-1,4.3276864E-1,5.951584E-1,6.611003E-1],"categories":[],"categories_nodes":[],"categories_segments":[],"categories_sizes":[],"default_left":[0,0,0,0,0,0,0,0,0,0,0,0,0,0,0,0,0,0,0,0,0,0,0,0,0,0,0,0,0,0,0,0,0,0,0,0,0,0,0,0,0,0,0,0,0,0,0,0,0,0,0,0,0,0,0,0,0,0,0,0,0,0,0,0,0,0,0,0,0,0,0,0,0,0,0,0,0,0,0,0,0,0,0,0,0,0,0,0,0,0,0,0,0,0,0,0,0,0,0,0,0,0,0,0,0,0,0,0,0,0,0,0,0,0,0,0,0,0,0,0,0,0,0,0,0],"id":2,"left_children":[1,3,5,7,9,11,13,15,17,19,21,23,25,27,29,31,33,35,37,39,41,43,45,47,49,51,53,55,57,59,61,63,65,67,69,71,73,75,77,79,81,83,85,87,89,91,93,95,97,99,101,103,105,107,109,111,113,115,117,119,121,123,-1,-1,-1,-1,-1,-1,-1,-1,-1,-1,-1,-1,-1,-1,-1,-1,-1,-1,-1,-1,-1,-1,-1,-1,-1,-1,-1,-1,-1,-1,-1,-1,-1,-1,-1,-1,-1,-1,-1,-1,-1,-1,-1,-1,-1,-1,-1,-1,-1,-1,-1,-1,-1,-1,-1,-1,-1,-1,-1,-1,-1,-1,-1],"loss_changes":[5.225842E5,1.11860984E5,1.0417994E5,5.4654688E3,1.8266365E4,1.4403828E4,1.4413094E4,6.3329688E3,3.821068E2,2.9610469E3,1.3739961E3,1.6859219E3,1.8456719E3,4.5627344E2,2.5094688E3,9.1668555E2,1.8290781E3,2.2759651E2,2.0811795E2,5.825614E2,5.872505E2,2.7893555E2,4.0042383E2,1.1233984E2,3.253672E2,1.4617578E2,4.271328E2,1.1735156E2,2.8665625E2,5.2721875E2,1.8060938E2,9.168457E2,1.754174E2,7.474219E2,3.7611755E1,1.3164874E2,1.5900505E2,2.1907693E2,2.7475888E2,9.957524E1,2.4945728E2,5.1608374E2,7.474696E2,8.900293E1,1.06662964E2,1.1482031E2,2.5301562E2,3.829883E1,4.1487305E1,6.948828E1,8.773047E1,9.571484E1,7.245508E1,3.185664E2,1.588164E2,2.188086E1,6.0774536E0,1.1055469E2,1.1608203E2,5.796875E0,1.8632031E2,1.5960938E2,0E0,0E0,0E0,0E0,0E0,0E0,0E0,0E0,0E0,0E0,0E0,0E0,0E0,0E0,0E0,0E0,0E0,0E0,0E0,0E0,0E0,0E0,0E0,0E0,0E0,0E0,0E0,0E0,0E0,0E0,0E0,0E0,0E0,0E0,0E0,0E0,0E0,0E0,0E0,0E0,0E0,0E0,0E0,0E0,0E0,0E0,0E0,0E0,0E0,0E0,0E0,0E0,0E0,0E0,0E0,0E0,0E0,0E0,0E0,0E0,0E0,0E0,0E0],"parents":[2147483647,0,0,1,1,2,2,3,3,4,4,5,5,6,6,7,7,8,8,9,9,10,10,11,11,12,12,13,13,14,14,15,15,16,16,17,17,18,18,19,19,20,20,21,21,22,22,23,23,24,24,25,25,26,26,27,27,28,28,29,29,30,30,31,31,32,32,33,33,34,34,35,35,36,36,37,37,38,38,39,39,40,40,41,41,42,42,43,43,44,44,45,45,46,46,47,47,48,48,49,49,50,50,51,51,52,52,53,53,54,54,55,55,56,56,57,57,58,58,59,59,60,60,61,61],"right_children":[2,4,6,8,10,12,14,16,18,20,22,24,26,28,30,32,34,36,38,40,42,44,46,48,50,52,54,56,58,60,62,64,66,68,70,72,74,76,78,80,82,84,86,88,90,92,94,96,98,100,102,104,106,108,110,112,114,116,118,120,122,124,-1,-1,-1,-1,-1,-1,-1,-1,-1,-1,-1,-1,-1,-1,-1,-1,-1,-1,-1,-1,-1,-1,-1,-1,-1,-1,-1,-1,-1,-1,-1,-1,-1,-1,-1,-1,-1,-1,-1,-1,-1,-1,-1,-1,-1,-1,-1,-1,-1,-1,-1,-1,-1,-1,-1,-1,-1,-1,-1,-1,-1,-1,-1],"split_conditions":[4.2E0,1.3E0,9.2E0,3E0,2.8E0,6.1E0,1.2E1,2E0,1E0,1.9E0,3.4E0,5E0,7.4E0,1E1,1.66E1,1.1E0,1.1E0,2.02E2,2E0,2E0,3E0,4E0,4E0,4.6E0,5.3E0,7E0,8.1E0,3E0,3.99E2,1.4E1,2.467E2,3.26E2,1.2E0,2E-1,2.61E2,1.26E2,2.5E-1,6E-1,3E0,2.82E2,4.6E1,2.1E0,4E0,3.1E0,3E0,4.1E0,4E0,4.06E2,3E0,2E0,4E0,3E0,4.06E2,3.87E2,3E0,4.48E2,1.89E2,1.09E1,4.01E2,2E0,3.99E2,2.42E2,-2.253562E-2,-5.0328504E-2,-3.2103732E-2,1.6507803E-2,-1.8450106E-2,-8.0854505E-2,-6.7943186E-2,-3.0182509E-2,-1.4296162E-2,7.837465E-3,8.8476665E-2,-4.7092553E-2,1.3987807E-2,-3.6936767E-2,-1.1636427E-3,2.1384066E-2,-6.2472343E-2,-5.6842266E-4,1.24248415E-2,2.6433563E-2,-1.3730533E-2,2.058878E-2,4.7728557E-2,1.4059394E-2,6.812071E-2,5.1917564E-2,6.3313715E-2,4.361364E-2,1.1878758E-1,8.333208E-2,1.0553539E-1,9.615361E-2,2.0070939E-1,1.17328666E-1,7.611807E-2,1.315148E-1,2.0453158E-1,1.3471797E-1,1.5628278E-1,1.7406861E-1,2.2621205E-1,2.1012211E-1,1.2069984E-1,2.3750122E-1,1.4413033E-1,2.6071543E-1,1.7487371E-1,2.9546186E-1,1.6726345E-1,3.4723493E-1,3.1589925E-1,1.1751528E-1,2.180084E-1,3.7279043E-1,4.1024587E-1,7.152649E-2,3.1176856E-1,4.489073E-1,4.8997122E-1,5.543852E-1,4.3276864E-1,5.951584E-1,6.611003E-1],"split_indices":[5,5,5,4,5,5,5,6,2,5,5,5,5,5,5,5,5,0,2,6,6,4,4,5,5,5,5,2,0,5,5,0,5,5,0,0,5,5,2,0,0,5,4,5,5,5,5,0,2,6,4,2,0,0,2,1,1,5,0,6,0,0,0,0,0,0,0,0,0,0,0,0,0,0,0,0,0,0,0,0,0,0,0,0,0,0,0,0,0,0,0,0,0,0,0,0,0,0,0,0,0,0,0,0,0,0,0,0,0,0,0,0,0,0,0,0,0,0,0,0,0,0,0,0,0],"split_type":[0,0,0,0,0,0,0,0,0,0,0,0,0,0,0,0,0,0,0,0,0,0,0,0,0,0,0,0,0,0,0,0,0,0,0,0,0,0,0,0,0,0,0,0,0,0,0,0,0,0,0,0,0,0,0,0,0,0,0,0,0,0,0,0,0,0,0,0,0,0,0,0,0,0,0,0,0,0,0,0,0,0,0,0,0,0,0,0,0,0,0,0,0,0,0,0,0,0,0,0,0,0,0,0,0,0,0,0,0,0,0,0,0,0,0,0,0,0,0,0,0,0,0,0,0],"sum_hessian":[1.82415E5,1.62803E5,1.9612E4,1.10024E5,5.2779E4,1.5322E4,4.29E3,1.05817E5,4.207E3,3.5944E4,1.6835E4,9.516E3,5.806E3,2.052E3,2.238E3,3.622E4,6.9597E4,1.656E3,2.551E3,1.6679E4,1.9265E4,7.792E3,9.043E3,4.66E3,4.856E3,2.9E3,2.906E3,7.16E2,1.336E3,1.509E3,7.29E2,3.4278E4,1.942E3,6.7075E4,2.522E3,2.31E2,1.425E3,1.818E3,7.33E2,6.125E3,1.0554E4,7.051E3,1.2214E4,7.481E3,3.11E2,8.805E3,2.38E2,2.624E3,2.036E3,1.825E3,3.031E3,2.04E3,8.6E2,1.459E3,1.447E3,6.98E2,1.8E1,1.224E3,1.12E2,8E2,7.09E2,7.28E2,1E0,2.4689E4,9.589E3,4.74E2,1.468E3,1.4277E4,5.2798E4,2.064E3,4.58E2,7.5E1,1.56E2,1.15E2,1.31E3,1.129E3,6.89E2,6.18E2,1.15E2,2.472E3,3.653E3,4.01E2,1.0153E4,3.261E3,3.79E3,1.1538E4,6.76E2,4.739E3,2.742E3,6E1,2.51E2,8.162E3,6.43E2,1.15E2,1.23E2,2.559E3,6.5E1,2.014E3,2.2E1,6.57E2,1.168E3,2.937E3,9.4E1,2.005E3,3.5E1,8.33E2,2.7E1,1.332E3,1.27E2,1.418E3,2.9E1,4.1E2,2.88E2,7E0,1.1E1,6.39E2,5.85E2,6E0,1.06E2,1.9E2,6.1E2,6.54E2,5.5E1,3.74E2,3.54E2],"tree_param":{"num_deleted":"0","num_feature":"8","num_nodes":"125","size_leaf_vector":"1"}},{"base_weights":[1.3765809E-4,-5.4564995E-1,4.7386203E0,-1.1034099E0,6.003031E-1,3.6782706E0,9.265508E0,-1.1456279E0,-4.149745E-2,1.9645345E-1,1.4246885E0,3.0329447E0,5.229946E0,7.9847507E0,1.116107E1,-8.234253E-1,-1.3132958E0,3.1378198E-1,-2.7216223E-1,-9.659198E-2,4.5015436E-1,1.1029125E0,1.6800038E0,2.536446E0,3.5916905E0,4.685074E0,5.811681E0,7.2889404E0,9.136204E0,1.03672905E1,1.1917812E1,-8.593981E-1,-1.8835813E-1,-1.3431604E0,-5.187999E-1,1.1868082E0,1.715268E-1,-4.4437924E-1,1.5499711E-1,1.3645288E-1,-2.3183937E-1,3.2954437E-1,6.9364756E-1,1.0659626E0,1.9854664E0,1.6500275E0,2.8065364E0,2.3419518E0,2.7585552E0,3.3395681E0,3.9644704E0,4.793032E0,3.484025E0,5.863517E0,3.4043996E0,7.4298706E0,5.696653E0,4.2657945E-1,4.6551275E-1,1.0476696E1,7.2117195E0,1.1935366E1,-2.197223E-2,-4.7812182E-2,-3.0498711E-2,1.5684152E-2,-1.7528227E-2,-7.681206E-2,-6.4546086E-2,7.253198E-2,-2.6282063E-2,7.4507496E-3,8.408101E-2,2.2120915E-2,-1.0268843E-2,-3.5091564E-2,-1.1055465E-3,2.0316591E-2,-5.9375655E-2,4.1516814E-3,2.1893729E-2,-1.3664851E-2,1.4475173E-2,1.4511786E-2,6.5339185E-2,2.5440693E-2,5.018702E-2,4.9322236E-2,6.0149174E-2,4.1468706E-2,1.12871766E-1,7.916599E-2,1.01862505E-1,9.138738E-2,1.8044747E-1,1.1789799E-1,8.232158E-2,1.24864E-1,1.4391342E-1,1.6536814E-1,2.150205E-1,2.0686734E-1,1.8313207E-1,2.5202525E-1,2.2306298E-1,2.0372525E-1,1.4163248E-1,2.8069916E-1,3.1808466E-1,1.4337292E-1,2.8653368E-1,3.5418004E-1,3.8976857E-1,6.846106E-2,2.963258E-1,5.249611E-1,2.65887E-1,2.1024597E-1,5.3099054E-1,5.745683E-1,6.461703E-1],"categories":[],"categories_nodes":[],"categories_segments":[],"categories_sizes":[],"default_left":[0,0,0,0,0,0,0,0,0,0,0,0,0,0,0,0,0,0,0,0,0,0,0,0,0,0,0,0,0,0,0,0,0,0,0,0,0,0,0,0,0,0,0,0,0,0,0,0,0,0,0,0,0,0,0,0,0,0,0,0,0,0,0,0,0,0,0,0,0,0,0,0,0,0,0,0,0,0,0,0,0,0,0,0,0,0,0,0,0,0,0,0,0,0,0,0,0,0,0,0,0,0,0,0,0,0,0,0,0,0,0,0,0,0,0,0,0,0,0,0,0],"id":3,"left_children":[1,3,5,7,9,11,13,15,17,19,21,23,25,27,29,31,33,35,37,39,41,43,45,47,49,51,53,55,57,59,61,63,65,67,69,71,73,75,77,79,81,83,85,87,89,91,93,95,97,99,101,103,105,107,109,111,113,-1,-1,115,117,119,-1,-1,-1,-1,-1,-1,-1,-1,-1,-1,-1,-1,-1,-1,-1,-1,-1,-1,-1,-1,-1,-1,-1,-1,-1,-1,-1,-1,-1,-1,-1,-1,-1,-1,-1,-1,-1,-1,-1,-1,-1,-1,-1,-1,-1,-1,-1,-1,-1,-1,-1,-1,-1,-1,-1,-1,-1,-1,-1],"loss_changes":[4.717678E5,1.0455299E5,9.040431E4,4.932578E3,1.782867E4,1.5271531E4,8.590094E3,5.7155156E3,3.4493286E2,2.6724067E3,1.4447188E3,2.9828203E3,1.39375E3,1.6455469E3,7.4084375E2,8.273125E2,1.6506719E3,2.0558337E2,1.878045E2,5.257638E2,5.6556934E2,2.5201562E2,3.268457E2,2.403789E2,4.6346094E2,2.841172E2,2.5007812E2,2.5770312E2,4.859375E0,1.695625E2,1.6359375E2,8.274453E2,1.5833679E2,6.745703E2,3.4756836E1,1.1888431E2,1.4568547E2,1.9773492E2,2.4814835E2,9.860278E1,2.2821112E2,4.9462292E2,3.652202E2,8.0333984E1,9.622717E1,2.4382031E2,1.9210815E2,3.0111328E1,7.607422E1,7.960156E1,9.13457E1,1.520664E2,6.345996E1,2.2745312E2,4.352301E1,9.982031E1,1.0428833E2,0E0,0E0,2.365625E1,2.3202551E2,1.7128906E2,0E0,0E0,0E0,0E0,0E0,0E0,0E0,0E0,0E0,0E0,0E0,0E0,0E0,0E0,0E0,0E0,0E0,0E0,0E0,0E0,0E0,0E0,0E0,0E0,0E0,0E0,0E0,0E0,0E0,0E0,0E0,0E0,0E0,0E0,0E0,0E0,0E0,0E0,0E0,0E0,0E0,0E0,0E0,0E0,0E0,0E0,0E0,0E0,0E0,0E0,0E0,0E0,0E0,0E0,0E0,0E0,0E0,0E0,0E0],"parents":[2147483647,0,0,1,1,2,2,3,3,4,4,5,5,6,6,7,7,8,8,9,9,10,10,11,11,12,12,13,13,14,14,15,15,16,16,17,17,18,18,19,19,20,20,21,21,22,22,23,23,24,24,25,25,26,26,27,27,28,28,29,29,30,30,31,31,32,32,33,33,34,34,35,35,36,36,37,37,38,38,39,39,40,40,41,41,42,42,43,43,44,44,45,45,46,46,47,47,48,48,49,49,50,50,51,51,52,52,53,53,54,54,55,55,56,56,59,59,60,60,61,61],"right_children":[2,4,6,8,10,12,14,16,18,20,22,24,26,28,30,32,34,36,38,40,42,44,46,48,50,52,54,56,58,60,62,64,66,68,70,72,74,76,78,80,82,84,86,88,90,92,94,96,98,100,102,104,106,108,110,112,114,-1,-1,116,118,120,-1,-1,-1,-1,-1,-1,-1,-1,-1,-1,-1,-1,-1,-1,-1,-1,-1,-1,-1,-1,-1,-1,-1,-1,-1,-1,-1,-1,-1,-1,-1,-1,-1,-1,-1,-1,-1,-1,-1,-1,-1,-1,-1,-1,-1,-1,-1,-1,-1,-1,-1,-1,-1,-1,-1,-1,-1,-1,-1],"split_conditions":[4.3E0,1.3E0,1E1,3E0,2.8E0,7E0,1.4E1,2E0,1E0,1.9E0,3.4E0,5.3E0,8.1E0,1.2E1,1.66E1,1.1E0,1.1E0,2.02E2,2E0,2E0,2.4E0,4E0,4E0,4.8E0,6.1E0,3.87E2,3E0,3.99E2,2E0,4.06E2,2.467E2,3.26E2,1.2E0,2E-1,2.7E1,1.26E2,1.54E2,6E-1,3E0,1.045E3,3E0,4E0,1.86E2,3.1E0,3E0,4.1E0,4E0,4.06E2,2E0,4E0,5.16E2,4.7E2,7E0,9.2E0,3E0,1.09E1,4.01E2,4.2657945E-1,4.6551275E-1,4E0,3.87E2,7.69E2,-2.197223E-2,-4.7812182E-2,-3.0498711E-2,1.5684152E-2,-1.7528227E-2,-7.681206E-2,-6.4546086E-2,7.253198E-2,-2.6282063E-2,7.4507496E-3,8.408101E-2,2.2120915E-2,-1.0268843E-2,-3.5091564E-2,-1.1055465E-3,2.0316591E-2,-5.9375655E-2,4.1516814E-3,2.1893729E-2,-1.3664851E-2,1.4475173E-2,1.4511786E-2,6.5339185E-2,2.5440693E-2,5.018702E-2,4.9322236E-2,6.0149174E-2,4.1468706E-2,1.12871766E-1,7.916599E-2,1.01862505E-1,9.138738E-2,1.8044747E-1,1.1789799E-1,8.232158E-2,1.24864E-1,1.4391342E-1,1.6536814E-1,2.150205E-1,2.0686734E-1,1.8313207E-1,2.5202525E-1,2.2306298E-1,2.0372525E-1,1.4163248E-1,2.8069916E-1,3.1808466E-1,1.4337292E-1,2.8653368E-1,3.5418004E-1,3.8976857E-1,6.846106E-2,2.963258E-1,5.249611E-1,2.65887E-1,2.1024597E-1,5.3099054E-1,5.745683E-1,6.461703E-1],"split_indices":[5,5,5,4,5,5,5,6,2,5,5,5,5,5,5,5,5,0,2,6,5,4,4,5,5,0,2,0,6,0,5,0,5,5,0,0,1,5,2,1,4,4,0,5,5,5,5,0,6,4,1,1,7,5,6,5,0,0,0,2,1,1,0,0,0,0,0,0,0,0,0,0,0,0,0,0,0,0,0,0,0,0,0,0,0,0,0,0,0,0,0,0,0,0,0,0,0,0,0,0,0,0,0,0,0,0,0,0,0,0,0,0,0,0,0,0,0,0,0,0,0],"split_type":[0,0,0,0,0,0,0,0,0,0,0,0,0,0,0,0,0,0,0,0,0,0,0,0,0,0,0,0,0,0,0,0,0,0,0,0,0,0,0,0,0,0,0,0,0,0,0,0,0,0,0,0,0,0,0,0,0,0,0,0,0,0,0,0,0,0,0,0,0,0,0,0,0,0,0,0,0,0,0,0,0,0,0,0,0,0,0,0,0,0,0,0,0,0,0,0,0,0,0,0,0,0,0,0,0,0,0,0,0,0,0,0,0,0,0,0,0,0,0,0,0],"sum_hessian":[1.82415E5,1.63575E5,1.884E4,1.10024E5,5.3551E4,1.5266E4,3.574E3,1.05817E5,4.207E3,3.5944E4,1.7607E4,1.0784E4,4.482E3,2.136E3,1.438E3,3.622E4,6.9597E4,1.656E3,2.551E3,1.6679E4,1.9265E4,7.792E3,9.815E3,5.713E3,5.071E3,2.319E3,2.163E3,1.336E3,8E2,7.09E2,7.29E2,3.4278E4,1.942E3,6.7075E4,2.522E3,2.31E2,1.425E3,1.818E3,7.33E2,6.125E3,1.0554E4,1.2885E4,6.38E3,7.481E3,3.11E2,9.563E3,2.52E2,3.052E3,2.661E3,3.031E3,2.04E3,2.125E3,1.94E2,2.116E3,4.7E1,1.224E3,1.12E2,1.9E2,6.1E2,6.83E2,2.6E1,7.28E2,1E0,2.4689E4,9.589E3,4.74E2,1.468E3,1.4277E4,5.2798E4,8E0,2.514E3,7.5E1,1.56E2,8.29E2,5.96E2,1.129E3,6.89E2,6.18E2,1.15E2,5.204E3,9.21E2,9.777E3,7.77E2,1.2388E4,4.97E2,3.999E3,2.381E3,4.739E3,2.742E3,6E1,2.51E2,8.162E3,1.401E3,1.15E2,1.37E2,2.981E3,7.1E1,8.43E2,1.818E3,2.937E3,9.4E1,1.289E3,7.51E2,1.209E3,9.16E2,9.9E1,9.5E1,1.418E3,6.98E2,4E1,7E0,6.39E2,5.85E2,6E0,1.06E2,6.79E2,4E0,1.5E1,1.1E1,5.11E2,2.17E2],"tree_param":{"num_deleted":"0","num_feature":"8","num_nodes":"121","size_leaf_vector":"1"}},{"base_weights":[1.777818E-4,-5.183628E-1,4.5021043E0,-1.0482407E0,5.7030475E-1,3.4945593E0,8.803556E0,-1.0883482E0,-3.9415903E-2,1.8663584E-1,1.3534948E0,2.8814123E0,4.968861E0,7.5864496E0,1.0604914E1,-7.8225625E-1,-1.2476324E0,2.9815528E-1,-2.5858364E-1,-9.1760784E-2,4.2765468E-1,1.0478008E0,1.5960498E0,2.4097059E0,3.412258E0,4.451174E0,5.521572E0,6.9253225E0,8.680508E0,9.851084E0,1.1323563E1,-8.1643045E-1,-1.789412E-1,-1.2760044E0,-4.9284154E-1,1.1278625E0,1.6295879E-1,-4.2218024E-1,1.4719404E-1,1.0250903E-1,-2.4025837E-1,6.4594936E-1,3.0159312E-1,1.0126791E0,1.8866879E0,1.567545E0,2.6672843E0,2.2249198E0,2.6207283E0,3.1727154E0,3.7664378E0,4.553604E0,3.311595E0,5.5706244E0,3.2431362E0,7.0589843E0,5.4150486E0,4.0536213E-1,4.4227526E-1,1.0011587E1,7.7978597E0,9.837925E0,1.1579704E1,-4.5421667E-2,-2.8973935E-2,1.4901596E-2,-1.6652415E-2,-7.297173E-2,-6.1318845E-2,-2.7379787E-2,-1.2271671E-2,7.0831175E-3,7.9903744E-2,-4.514272E-2,1.2856993E-2,-3.3338543E-2,-1.0503511E-3,1.9302404E-2,-5.6432463E-2,-1.6115656E-3,1.09893745E-2,-1.4321707E-2,1.3752343E-2,1.8832726E-2,4.387481E-2,1.2336695E-2,6.1809283E-2,4.685665E-2,5.7142813E-2,3.9429266E-2,1.07250586E-1,7.520817E-2,9.677301E-2,8.685741E-2,1.7149048E-1,1.1053872E-1,1.5151396E-1,1.186282E-1,1.367217E-1,1.5710256E-1,2.0438264E-1,1.8971018E-1,1.0573243E-1,2.394344E-1,2.11922E-1,1.5225731E-1,2.3658891E-1,2.6667413E-1,3.0220318E-1,1.3637912E-1,2.7399787E-1,3.5536E-1,2.371975E-1,6.5527014E-2,2.81648E-1,5.016946E-1,2.5525156E-1,2.2971876E-1,5.1165545E-1,4.592327E-2,5.0353587E-1,5.90928E-1,4.8479995E-1],"categories":[],"categories_nodes":[],"categories_segments":[],"categories_sizes":[],"default_left":[0,0,0,0,0,0,0,0,0,0,0,0,0,0,0,0,0,0,0,0,0,0,0,0,0,0,0,0,0,0,0,0,0,0,0,0,0,0,0,0,0,0,0,0,0,0,0,0,0,0,0,0,0,0,0,0,0,0,0,0,0,0,0,0,0,0,0,0,0,0,0,0,0,0,0,0,0,0,0,0,0,0,0,0,0,0,0,0,0,0,0,0,0,0,0,0,0,0,0,0,0,0,0,0,0,0,0,0,0,0,0,0,0,0,0,0,0,0,0,0,0,0,0],"id":4,"left_children":[1,3,5,7,9,11,13,15,17,19,21,23,25,27,29,31,33,35,37,39,41,43,45,47,49,51,53,55,57,59,61,63,65,67,69,71,73,75,77,79,81,83,85,87,89,91,93,95,97,99,101,103,105,107,109,111,113,-1,-1,115,117,119,121,-1,-1,-1,-1,-1,-1,-1,-1,-1,-1,-1,-1,-1,-1,-1,-1,-1,-1,-1,-1,-1,-1,-1,-1,-1,-1,-1,-1,-1,-1,-1,-1,-1,-1,-1,-1,-1,-1,-1,-1,-1,-1,-1,-1,-1,-1,-1,-1,-1,-1,-1,-1,-1,-1,-1,-1,-1,-1,-1,-1],"loss_changes":[4.2584006E5,9.436119E4,8.1624375E4,4.4517188E3,1.6091357E4,1.3786484E4,7.7575E3,5.158258E3,3.114048E2,2.4119067E3,1.303918E3,2.692375E3,1.2581562E3,1.4856094E3,6.6803125E2,7.4665234E2,1.4898125E3,1.856877E2,1.694737E2,4.8121924E2,5.2997754E2,2.2769531E2,2.9555273E2,2.1698438E2,4.1836328E2,2.5572656E2,2.2378125E2,2.3167188E2,4.0507812E0,1.5590625E2,1.6385938E2,7.467656E2,1.4291934E2,6.088125E2,3.4043762E1,1.0735742E2,1.4337321E2,1.784721E2,2.2411507E2,1.1420915E2,2.2503314E2,4.3939258E2,6.259706E2,7.250928E1,8.681213E1,2.2011328E2,1.7348267E2,2.8081055E1,6.862695E1,7.222266E1,8.5583984E1,1.3721875E2,5.9380127E1,2.054375E2,4.0406616E1,1.0301172E2,9.368701E1,0E0,0E0,2.0460938E1,3.8985742E2,2.2745703E2,1.6302344E2,0E0,0E0,0E0,0E0,0E0,0E0,0E0,0E0,0E0,0E0,0E0,0E0,0E0,0E0,0E0,0E0,0E0,0E0,0E0,0E0,0E0,0E0,0E0,0E0,0E0,0E0,0E0,0E0,0E0,0E0,0E0,0E0,0E0,0E0,0E0,0E0,0E0,0E0,0E0,0E0,0E0,0E0,0E0,0E0,0E0,0E0,0E0,0E0,0E0,0E0,0E0,0E0,0E0,0E0,0E0,0E0,0E0,0E0,0E0,0E0],"parents":[2147483647,0,0,1,1,2,2,3,3,4,4,5,5,6,6,7,7,8,8,9,9,10,10,11,11,12,12,13,13,14,14,15,15,16,16,17,17,18,18,19,19,20,20,21,21,22,22,23,23,24,24,25,25,26,26,27,27,28,28,29,29,30,30,31,31,32,32,33,33,34,34,35,35,36,36,37,37,38,38,39,39,40,40,41,41,42,42,43,43,44,44,45,45,46,46,47,47,48,48,49,49,50,50,51,51,52,52,53,53,54,54,55,55,56,56,59,59,60,60,61,61,62,62],"right_children":[2,4,6,8,10,12,14,16,18,20,22,24,26,28,30,32,34,36,38,40,42,44,46,48,50,52,54,56,58,60,62,64,66,68,70,72,74,76,78,80,82,84,86,88,90,92,94,96,98,100,102,104,106,108,110,112,114,-1,-1,116,118,120,122,-1,-1,-1,-1,-1,-1,-1,-1,-1,-1,-1,-1,-1,-1,-1,-1,-1,-1,-1,-1,-1,-1,-1,-1,-1,-1,-1,-1,-1,-1,-1,-1,-1,-1,-1,-1,-1,-1,-1,-1,-1,-1,-1,-1,-1,-1,-1,-1,-1,-1,-1,-1,-1,-1,-1,-1,-1,-1,-1,-1],"split_conditions":[4.3E0,1.3E0,1E1,3E0,2.8E0,7E0,1.4E1,2E0,1E0,1.9E0,3.4E0,5.3E0,8.1E0,1.2E1,1.66E1,1.1E0,1.1E0,2.02E2,2E0,3E0,3E0,4E0,4E0,4.8E0,6.1E0,3.87E2,3E0,3.99E2,2E0,3.99E2,3E0,3.26E2,1.2E0,2E-1,2.61E2,1.26E2,2.5E-1,6E-1,3E0,2.82E2,3E0,2.1E0,4E0,3.1E0,3E0,4.1E0,4E0,3E0,2E0,4E0,3E0,4.7E2,1.083E3,9.2E0,3E0,3E0,4.01E2,4.0536213E-1,4.4227526E-1,4E0,7.56E2,4.6E1,3.96E2,-4.5421667E-2,-2.8973935E-2,1.4901596E-2,-1.6652415E-2,-7.297173E-2,-6.1318845E-2,-2.7379787E-2,-1.2271671E-2,7.0831175E-3,7.9903744E-2,-4.514272E-2,1.2856993E-2,-3.3338543E-2,-1.0503511E-3,1.9302404E-2,-5.6432463E-2,-1.6115656E-3,1.09893745E-2,-1.4321707E-2,1.3752343E-2,1.8832726E-2,4.387481E-2,1.2336695E-2,6.1809283E-2,4.685665E-2,5.7142813E-2,3.9429266E-2,1.07250586E-1,7.520817E-2,9.677301E-2,8.685741E-2,1.7149048E-1,1.1053872E-1,1.5151396E-1,1.186282E-1,1.367217E-1,1.5710256E-1,2.0438264E-1,1.8971018E-1,1.0573243E-1,2.394344E-1,2.11922E-1,1.5225731E-1,2.3658891E-1,2.6667413E-1,3.0220318E-1,1.3637912E-1,2.7399787E-1,3.5536E-1,2.371975E-1,6.5527014E-2,2.81648E-1,5.016946E-1,2.5525156E-1,2.2971876E-1,5.1165545E-1,4.592327E-2,5.0353587E-1,5.90928E-1,4.8479995E-1],"split_indices":[5,5,5,4,5,5,5,6,2,5,5,5,5,5,5,5,5,0,2,6,6,4,4,5,5,0,2,0,6,0,7,0,5,5,0,0,5,5,2,0,4,5,4,5,5,5,5,2,6,4,2,1,1,5,6,2,0,0,0,2,1,0,0,0,0,0,0,0,0,0,0,0,0,0,0,0,0,0,0,0,0,0,0,0,0,0,0,0,0,0,0,0,0,0,0,0,0,0,0,0,0,0,0,0,0,0,0,0,0,0,0,0,0,0,0,0,0,0,0,0,0,0,0],"split_type":[0,0,0,0,0,0,0,0,0,0,0,0,0,0,0,0,0,0,0,0,0,0,0,0,0,0,0,0,0,0,0,0,0,0,0,0,0,0,0,0,0,0,0,0,0,0,0,0,0,0,0,0,0,0,0,0,0,0,0,0,0,0,0,0,0,0,0,0,0,0,0,0,0,0,0,0,0,0,0,0,0,0,0,0,0,0,0,0,0,0,0,0,0,0,0,0,0,0,0,0,0,0,0,0,0,0,0,0,0,0,0,0,0,0,0,0,0,0,0,0,0,0,0],"sum_hessian":[1.82415E5,1.63575E5,1.884E4,1.10024E5,5.3551E4,1.5266E4,3.574E3,1.05817E5,4.207E3,3.5944E4,1.7607E4,1.0784E4,4.482E3,2.136E3,1.438E3,3.622E4,6.9597E4,1.656E3,2.551E3,1.6679E4,1.9265E4,7.792E3,9.815E3,5.713E3,5.071E3,2.319E3,2.163E3,1.336E3,8E2,7.09E2,7.29E2,3.4278E4,1.942E3,6.7075E4,2.522E3,2.31E2,1.425E3,1.818E3,7.33E2,7.226E3,9.453E3,7.051E3,1.2214E4,7.481E3,3.11E2,9.563E3,2.52E2,3.052E3,2.661E3,3.031E3,2.04E3,2.125E3,1.94E2,2.116E3,4.7E1,1.224E3,1.12E2,1.9E2,6.1E2,6.54E2,5.5E1,1.13E2,6.16E2,2.4689E4,9.589E3,4.74E2,1.468E3,1.4277E4,5.2798E4,2.064E3,4.58E2,7.5E1,1.56E2,1.15E2,1.31E3,1.129E3,6.89E2,6.18E2,1.15E2,3.363E3,3.863E3,8.676E3,7.77E2,3.261E3,3.79E3,1.1538E4,6.76E2,4.739E3,2.742E3,6E1,2.51E2,8.162E3,1.401E3,1.15E2,1.37E2,3.003E3,4.9E1,8.43E2,1.818E3,2.937E3,9.4E1,2.005E3,3.5E1,1.209E3,9.16E2,1.66E2,2.8E1,1.418E3,6.98E2,4E1,7E0,1.197E3,2.7E1,6E0,1.06E2,6.5E2,4E0,2.5E1,3E1,3E0,1.1E2,5.42E2,7.4E1],"tree_param":{"num_deleted":"0","num_feature":"8","num_nodes":"123","size_leaf_vector":"1"}},{"base_weights":[2.1531168E-4,-4.9244127E-1,4.2774186E0,-9.958311E-1,5.4180497E-1,3.3200274E0,8.364752E0,-1.033933E0,-3.7449088E-2,1.773081E-1,1.2858588E0,2.7374506E0,4.7208242E0,7.2079635E0,1.00768385E1,-7.4314547E-1,-1.1852533E0,2.8328055E-1,-2.4568246E-1,-8.717221E-2,4.0627906E-1,9.954429E-1,1.5162911E0,2.2893112E0,3.2417746E0,4.228977E0,5.245946E0,6.579759E0,8.24754E0,9.360641E0,1.0759611E1,-7.7561104E-1,-1.6999502E-1,-1.2122062E0,-4.6821523E-1,5.4343995E-2,7.42717E-1,-4.0109012E-1,1.3978378E-1,9.7384915E-2,-2.2824554E-1,2.7303603E-1,6.008504E-1,9.620591E-1,1.7928236E0,1.4891858E0,2.5349412E0,2.1137598E0,2.4897878E0,3.0141988E0,3.578261E0,4.326136E0,3.1480093E0,5.2923617E0,3.0895288E0,6.7065187E0,5.1473684E0,3.852001E-1,4.2019764E-1,9.512163E0,7.421205E0,1.0145121E1,1.1376675E1,-4.3150675E-2,-2.7525386E-2,1.4158082E-2,-1.5820358E-2,-6.9323406E-2,-5.8252957E-2,7.052522E-2,-2.3737606E-2,-1.692569E-4,1.2764983E-1,-3.8536213E-2,4.5945253E-2,-3.167309E-2,-9.979088E-4,1.8338842E-2,-5.363516E-2,-1.5310099E-3,1.0440051E-2,2.6143495E-2,-1.2919038E-2,7.7242196E-2,1.24150505E-2,2.3126638E-2,4.611103E-2,4.451431E-2,5.428672E-2,3.7490126E-2,1.0190933E-1,7.144823E-2,9.193782E-2,8.255198E-2,1.629781E-1,1.0644632E-1,7.281249E-2,1.127038E-1,1.2988937E-1,1.4925009E-1,1.9427107E-1,1.8699871E-1,1.6453592E-1,2.2747257E-1,2.0133746E-1,1.8564029E-1,1.2634438E-1,2.533498E-1,2.8711462E-1,1.2972648E-1,2.6201046E-1,3.1890616E-1,3.526866E-1,6.271871E-2,2.676972E-1,4.7664848E-1,2.4504147E-1,2.1867459E-1,4.8689792E-1,3.9310932E-1,5.290449E-1,6.1073095E-1,4.965681E-1],"categories":[],"categories_nodes":[],"categories_segments":[],"categories_sizes":[],"default_left":[0,0,0,0,0,0,0,0,0,0,0,0,0,0,0,0,0,0,0,0,0,0,0,0,0,0,0,0,0,0,0,0,0,0,0,0,0,0,0,0,0,0,0,0,0,0,0,0,0,0,0,0,0,0,0,0,0,0,0,0,0,0,0,0,0,0,0,0,0,0,0,0,0,0,0,0,0,0,0,0,0,0,0,0,0,0,0,0,0,0,0,0,0,0,0,0,0,0,0,0,0,0,0,0,0,0,0,0,0,0,0,0,0,0,0,0,0,0,0,0,0,0,0],"id":5,"left_children":[1,3,5,7,9,11,13,15,17,19,21,23,25,27,29,31,33,35,37,39,41,43,45,47,49,51,53,55,57,59,61,63,65,67,69,71,73,75,77,79,81,83,85,87,89,91,93,95,97,99,101,103,105,107,109,111,113,-1,-1,115,117,119,121,-1,-1,-1,-1,-1,-1,-1,-1,-1,-1,-1,-1,-1,-1,-1,-1,-1,-1,-1,-1,-1,-1,-1,-1,-1,-1,-1,-1,-1,-1,-1,-1,-1,-1,-1,-1,-1,-1,-1,-1,-1,-1,-1,-1,-1,-1,-1,-1,-1,-1,-1,-1,-1,-1,-1,-1,-1,-1,-1,-1],"loss_changes":[3.8438772E5,8.516295E4,7.370044E4,4.0176562E3,1.4523355E4,1.2446047E4,7.0077188E3,4.6553203E3,2.8110767E2,2.1768037E3,1.1768398E3,2.4300781E3,1.1356797E3,1.3413359E3,6.029531E2,6.738574E2,1.3445156E3,1.7424586E2,1.5293213E2,4.343042E2,4.9931226E2,2.0572168E2,2.6725195E2,1.9583594E2,3.7760938E2,2.3003906E2,2.0024219E2,2.0823438E2,3.3554688E0,1.380586E2,1.6138281E2,6.739492E2,1.2900304E2,5.4946875E2,3.1654541E1,1.596879E2,1.4763248E2,1.6108575E2,2.0240947E2,1.03076645E2,2.141264E2,3.5940405E2,3.4762622E2,6.5447754E1,7.831836E1,1.9871094E2,1.5666321E2,2.7344727E1,6.191211E1,6.552539E1,8.25957E1,1.2382031E2,5.9025513E1,1.8557031E2,3.750421E1,9.469141E1,8.415845E1,0E0,0E0,1.6121094E1,3.5281592E2,2.898789E2,3.0983984E2,0E0,0E0,0E0,0E0,0E0,0E0,0E0,0E0,0E0,0E0,0E0,0E0,0E0,0E0,0E0,0E0,0E0,0E0,0E0,0E0,0E0,0E0,0E0,0E0,0E0,0E0,0E0,0E0,0E0,0E0,0E0,0E0,0E0,0E0,0E0,0E0,0E0,0E0,0E0,0E0,0E0,0E0,0E0,0E0,0E0,0E0,0E0,0E0,0E0,0E0,0E0,0E0,0E0,0E0,0E0,0E0,0E0,0E0,0E0,0E0],"parents":[2147483647,0,0,1,1,2,2,3,3,4,4,5,5,6,6,7,7,8,8,9,9,10,10,11,11,12,12,13,13,14,14,15,15,16,16,17,17,18,18,19,19,20,20,21,21,22,22,23,23,24,24,25,25,26,26,27,27,28,28,29,29,30,30,31,31,32,32,33,33,34,34,35,35,36,36,37,37,38,38,39,39,40,40,41,41,42,42,43,43,44,44,45,45,46,46,47,47,48,48,49,49,50,50,51,51,52,52,53,53,54,54,55,55,56,56,59,59,60,60,61,61,62,62],"right_children":[2,4,6,8,10,12,14,16,18,20,22,24,26,28,30,32,34,36,38,40,42,44,46,48,50,52,54,56,58,60,62,64,66,68,70,72,74,76,78,80,82,84,86,88,90,92,94,96,98,100,102,104,106,108,110,112,114,-1,-1,116,118,120,122,-1,-1,-1,-1,-1,-1,-1,-1,-1,-1,-1,-1,-1,-1,-1,-1,-1,-1,-1,-1,-1,-1,-1,-1,-1,-1,-1,-1,-1,-1,-1,-1,-1,-1,-1,-1,-1,-1,-1,-1,-1,-1,-1,-1,-1,-1,-1,-1,-1,-1,-1,-1,-1,-1,-1,-1,-1,-1,-1,-1],"split_conditions":[4.3E0,1.3E0,1E1,3E0,2.8E0,7E0,1.4E1,2E0,1E0,1.9E0,3.4E0,5.3E0,8.1E0,1.2E1,1.66E1,1.1E0,1.1E0,9E0,2E0,3E0,2.07E2,4E0,4E0,4.8E0,6.1E0,3.87E2,3E0,3.99E2,2E0,3.99E2,2.42E2,3.26E2,1.2E0,2E-1,2.7E1,1.2E0,1.26E2,6E-1,3E0,2.82E2,4.6E1,2.7E1,2.4E0,3.1E0,3E0,4.1E0,4E0,4.06E2,2E0,4E0,5.23E2,4.7E2,7E0,9.2E0,3E0,1.09E1,4.01E2,3.852001E-1,4.2019764E-1,4E0,7.56E2,3E0,3.4E2,-4.3150675E-2,-2.7525386E-2,1.4158082E-2,-1.5820358E-2,-6.9323406E-2,-5.8252957E-2,7.052522E-2,-2.3737606E-2,-1.692569E-4,1.2764983E-1,-3.8536213E-2,4.5945253E-2,-3.167309E-2,-9.979088E-4,1.8338842E-2,-5.363516E-2,-1.5310099E-3,1.0440051E-2,2.6143495E-2,-1.2919038E-2,7.7242196E-2,1.24150505E-2,2.3126638E-2,4.611103E-2,4.451431E-2,5.428672E-2,3.7490126E-2,1.0190933E-1,7.144823E-2,9.193782E-2,8.255198E-2,1.629781E-1,1.0644632E-1,7.281249E-2,1.127038E-1,1.2988937E-1,1.4925009E-1,1.9427107E-1,1.8699871E-1,1.6453592E-1,2.2747257E-1,2.0133746E-1,1.8564029E-1,1.2634438E-1,2.533498E-1,2.8711462E-1,1.2972648E-1,2.6201046E-1,3.1890616E-1,3.526866E-1,6.271871E-2,2.676972E-1,4.7664848E-1,2.4504147E-1,2.1867459E-1,4.8689792E-1,3.9310932E-1,5.290449E-1,6.1073095E-1,4.965681E-1],"split_indices":[5,5,5,4,5,5,5,6,2,5,5,5,5,5,5,5,5,4,2,6,0,4,4,5,5,0,2,0,6,0,0,0,5,5,0,5,1,5,2,0,0,0,5,5,5,5,5,0,6,4,1,1,7,5,6,5,0,0,0,2,1,7,0,0,0,0,0,0,0,0,0,0,0,0,0,0,0,0,0,0,0,0,0,0,0,0,0,0,0,0,0,0,0,0,0,0,0,0,0,0,0,0,0,0,0,0,0,0,0,0,0,0,0,0,0,0,0,0,0,0,0,0,0],"split_type":[0,0,0,0,0,0,0,0,0,0,0,0,0,0,0,0,0,0,0,0,0,0,0,0,0,0,0,0,0,0,0,0,0,0,0,0,0,0,0,0,0,0,0,0,0,0,0,0,0,0,0,0,0,0,0,0,0,0,0,0,0,0,0,0,0,0,0,0,0,0,0,0,0,0,0,0,0,0,0,0,0,0,0,0,0,0,0,0,0,0,0,0,0,0,0,0,0,0,0,0,0,0,0,0,0,0,0,0,0,0,0,0,0,0,0,0,0,0,0,0,0,0,0],"sum_hessian":[1.82415E5,1.63575E5,1.884E4,1.10024E5,5.3551E4,1.5266E4,3.574E3,1.05817E5,4.207E3,3.5944E4,1.7607E4,1.0784E4,4.482E3,2.136E3,1.438E3,3.622E4,6.9597E4,1.656E3,2.551E3,1.6679E4,1.9265E4,7.792E3,9.815E3,5.713E3,5.071E3,2.319E3,2.163E3,1.336E3,8E2,7.09E2,7.29E2,3.4278E4,1.942E3,6.7075E4,2.522E3,1.106E3,5.5E2,1.818E3,7.33E2,7.226E3,9.453E3,1.1436E4,7.829E3,7.481E3,3.11E2,9.563E3,2.52E2,3.052E3,2.661E3,3.031E3,2.04E3,2.125E3,1.94E2,2.116E3,4.7E1,1.224E3,1.12E2,1.9E2,6.1E2,6.54E2,5.5E1,3.74E2,3.55E2,2.4689E4,9.589E3,4.74E2,1.468E3,1.4277E4,5.2798E4,8E0,2.514E3,1.082E3,2.4E1,5.7E1,4.93E2,1.129E3,6.89E2,6.18E2,1.15E2,3.363E3,3.863E3,3.64E2,9.089E3,2.17E2,1.1219E4,5.475E3,2.354E3,4.739E3,2.742E3,6E1,2.51E2,8.162E3,1.401E3,1.15E2,1.37E2,2.981E3,7.1E1,8.43E2,1.818E3,2.937E3,9.4E1,1.298E3,7.42E2,1.209E3,9.16E2,9.9E1,9.5E1,1.418E3,6.98E2,4E1,7E0,6.39E2,5.85E2,6E0,1.06E2,6.5E2,4E0,2.5E1,3E1,6.3E1,3.11E2,2.2E2,1.35E2],"tree_param":{"num_deleted":"0","num_feature":"8","num_nodes":"123","size_leaf_vector":"1"}},{"base_weights":[2.5275841E-4,-4.6781468E-1,4.0639753E0,-9.460403E-1,5.147302E-1,3.154209E0,7.947987E0,-9.822378E-1,-3.556072E-2,1.6844776E-1,1.2216024E0,2.6006818E0,4.485156E0,6.848411E0,9.575398E0,-7.330633E-1,-1.142448E0,2.6919797E-1,-2.3342498E-1,-8.281227E-2,3.859734E-1,9.457013E-1,1.4405181E0,2.1749194E0,3.079823E0,4.0178475E0,4.9840794E0,6.2515206E0,7.8361692E0,8.894618E0,1.0224411E1,-8.191779E-1,-4.8204803E-1,-1.1678408E0,-4.4782665E-1,1.0447385E0,1.4283429E-1,-3.8105357E-1,1.3274644E-1,-1.9206277E-1,1.3466552E-1,2.7558824E-1,6.088283E-1,9.139692E-1,1.7036291E0,1.4147435E0,2.4091644E0,2.0081306E0,2.3653898E0,2.8636022E0,3.3995202E0,4.110031E0,2.9922087E0,4.5107417E0,5.182984E0,5.736827E0,6.589838E0,3.6604097E-1,3.992222E-1,9.037657E0,7.0627446E0,1.0260643E1,2.9186497E0,-4.2554192E-2,-1.16490545E-2,-1.5735375E-2,-3.008618E-2,-6.6660635E-2,-5.608974E-2,-1.7677613E-2,-2.8342227E-2,5.916297E-3,7.432693E-2,-4.3400254E-2,1.1608326E-2,-3.0090837E-2,-9.480851E-4,1.742338E-2,-5.0976526E-2,1.1231844E-2,-1.1684654E-2,4.114356E-3,2.6513467E-2,1.2000545E-2,5.800554E-2,4.8210528E-2,2.398308E-2,5.359153E-2,4.309996E-2,3.5646345E-2,9.683408E-2,6.787624E-2,8.734421E-2,7.845997E-2,1.5488823E-1,9.973283E-2,1.3887392E-1,1.1687683E-1,1.6175644E-1,1.4658597E-1,1.2576458E-1,1.7128333E-1,9.240719E-2,2.1610835E-1,1.9128156E-1,1.3684836E-1,2.1794342E-1,2.3165448E-1,1.2124071E-1,2.3322153E-1,2.7193347E-1,2.8856906E-1,-1.5953189E-2,3.0146354E-1,3.5998532E-1,4.5285264E-1,2.3523982E-1,1.6601261E-1,4.3740645E-1,4.9080107E-1,5.6358695E-1,2.3238479E-1,-9.993833E-2],"categories":[],"categories_nodes":[],"categories_segments":[],"categories_sizes":[],"default_left":[0,0,0,0,0,0,0,0,0,0,0,0,0,0,0,0,0,0,0,0,0,0,0,0,0,0,0,0,0,0,0,0,0,0,0,0,0,0,0,0,0,0,0,0,0,0,0,0,0,0,0,0,0,0,0,0,0,0,0,0,0,0,0,0,0,0,0,0,0,0,0,0,0,0,0,0,0,0,0,0,0,0,0,0,0,0,0,0,0,0,0,0,0,0,0,0,0,0,0,0,0,0,0,0,0,0,0,0,0,0,0,0,0,0,0,0,0,0,0,0,0,0,0],"id":6,"left_children":[1,3,5,7,9,11,13,15,17,19,21,23,25,27,29,31,33,35,37,39,41,43,45,47,49,51,53,55,57,59,61,63,65,67,69,71,73,75,77,79,81,83,85,87,89,91,93,95,97,99,101,103,105,107,109,111,113,-1,-1,115,117,119,121,-1,-1,-1,-1,-1,-1,-1,-1,-1,-1,-1,-1,-1,-1,-1,-1,-1,-1,-1,-1,-1,-1,-1,-1,-1,-1,-1,-1,-1,-1,-1,-1,-1,-1,-1,-1,-1,-1,-1,-1,-1,-1,-1,-1,-1,-1,-1,-1,-1,-1,-1,-1,-1,-1,-1,-1,-1,-1,-1,-1],"loss_changes":[3.469747E5,7.686128E4,6.655044E4,3.6260703E3,1.3108116E4,1.1235766E4,6.33175E3,4.2234453E3,2.538088E2,1.9646243E3,1.0621445E3,2.1934453E3,1.0251953E3,1.2109531E3,5.44875E2,8.9481445E2,1.1354766E3,1.6223703E2,1.3800499E2,3.9633527E2,4.737732E2,1.8586914E2,2.4166211E2,1.7677344E2,3.408711E2,2.0705078E2,1.8036328E2,1.9500781E2,2.7578125E0,1.2221094E2,1.6328125E2,5.7649414E2,2.1171167E2,4.71625E2,2.5303436E1,9.4779205E1,1.2897008E2,1.4539316E2,1.8280603E2,1.9265991E2,1.1553864E2,4.0523065E2,2.9244824E2,6.0458984E1,7.065552E1,1.7939062E2,1.4147412E2,2.6108398E1,5.6924805E1,6.456445E1,7.6458984E1,1.1173047E2,5.609131E1,1.5413965E2,1.7576172E2,1.1442383E2,2.3008594E2,0E0,0E0,1.24296875E1,3.2417627E2,2.1574219E2,5.1801846E1,0E0,0E0,0E0,0E0,0E0,0E0,0E0,0E0,0E0,0E0,0E0,0E0,0E0,0E0,0E0,0E0,0E0,0E0,0E0,0E0,0E0,0E0,0E0,0E0,0E0,0E0,0E0,0E0,0E0,0E0,0E0,0E0,0E0,0E0,0E0,0E0,0E0,0E0,0E0,0E0,0E0,0E0,0E0,0E0,0E0,0E0,0E0,0E0,0E0,0E0,0E0,0E0,0E0,0E0,0E0,0E0,0E0,0E0,0E0,0E0],"parents":[2147483647,0,0,1,1,2,2,3,3,4,4,5,5,6,6,7,7,8,8,9,9,10,10,11,11,12,12,13,13,14,14,15,15,16,16,17,17,18,18,19,19,20,20,21,21,22,22,23,23,24,24,25,25,26,26,27,27,28,28,29,29,30,30,31,31,32,32,33,33,34,34,35,35,36,36,37,37,38,38,39,39,40,40,41,41,42,42,43,43,44,44,45,45,46,46,47,47,48,48,49,49,50,50,51,51,52,52,53,53,54,54,55,55,56,56,59,59,60,60,61,61,62,62],"right_children":[2,4,6,8,10,12,14,16,18,20,22,24,26,28,30,32,34,36,38,40,42,44,46,48,50,52,54,56,58,60,62,64,66,68,70,72,74,76,78,80,82,84,86,88,90,92,94,96,98,100,102,104,106,108,110,112,114,-1,-1,116,118,120,122,-1,-1,-1,-1,-1,-1,-1,-1,-1,-1,-1,-1,-1,-1,-1,-1,-1,-1,-1,-1,-1,-1,-1,-1,-1,-1,-1,-1,-1,-1,-1,-1,-1,-1,-1,-1,-1,-1,-1,-1,-1,-1,-1,-1,-1,-1,-1,-1,-1,-1,-1,-1,-1,-1,-1,-1,-1,-1,-1,-1],"split_conditions":[4.3E0,1.3E0,1E1,3E0,2.8E0,7E0,1.4E1,3E0,1E0,1.9E0,3.4E0,5.3E0,8.1E0,1.2E1,1.66E1,3.26E2,1.1E0,2.02E2,2E0,2.82E2,2.4E0,4E0,4E0,4.8E0,6.1E0,3.87E2,2E0,1E0,2E0,3.99E2,1.239E3,1.1E0,2.5E-1,2E-1,4.7E2,1.26E2,2.5E-1,6E-1,3E0,4.6E1,1.045E3,4E0,2E0,3.51E2,3E0,4.1E0,4E0,3E0,4E0,3.4E2,3E0,4.7E2,1.083E3,3E0,8.6E0,1.239E3,1.09E1,3.6604097E-1,3.992222E-1,4E0,3.87E2,7.69E2,1E0,-4.2554192E-2,-1.16490545E-2,-1.5735375E-2,-3.008618E-2,-6.6660635E-2,-5.608974E-2,-1.7677613E-2,-2.8342227E-2,5.916297E-3,7.432693E-2,-4.3400254E-2,1.1608326E-2,-3.0090837E-2,-9.480851E-4,1.742338E-2,-5.0976526E-2,1.1231844E-2,-1.1684654E-2,4.114356E-3,2.6513467E-2,1.2000545E-2,5.800554E-2,4.8210528E-2,2.398308E-2,5.359153E-2,4.309996E-2,3.5646345E-2,9.683408E-2,6.787624E-2,8.734421E-2,7.845997E-2,1.5488823E-1,9.973283E-2,1.3887392E-1,1.1687683E-1,1.6175644E-1,1.4658597E-1,1.2576458E-1,1.7128333E-1,9.240719E-2,2.1610835E-1,1.9128156E-1,1.3684836E-1,2.1794342E-1,2.3165448E-1,1.2124071E-1,2.3322153E-1,2.7193347E-1,2.8856906E-1,-1.5953189E-2,3.0146354E-1,3.5998532E-1,4.5285264E-1,2.3523982E-1,1.6601261E-1,4.3740645E-1,4.9080107E-1,5.6358695E-1,2.3238479E-1,-9.993833E-2],"split_indices":[5,5,5,4,5,5,5,6,2,5,5,5,5,5,5,0,5,0,2,0,5,4,4,5,5,0,6,2,6,0,1,5,5,5,1,0,5,5,2,0,1,4,6,1,5,5,5,2,4,0,2,1,1,2,5,1,5,0,0,2,1,1,2,0,0,0,0,0,0,0,0,0,0,0,0,0,0,0,0,0,0,0,0,0,0,0,0,0,0,0,0,0,0,0,0,0,0,0,0,0,0,0,0,0,0,0,0,0,0,0,0,0,0,0,0,0,0,0,0,0,0,0,0],"split_type":[0,0,0,0,0,0,0,0,0,0,0,0,0,0,0,0,0,0,0,0,0,0,0,0,0,0,0,0,0,0,0,0,0,0,0,0,0,0,0,0,0,0,0,0,0,0,0,0,0,0,0,0,0,0,0,0,0,0,0,0,0,0,0,0,0,0,0,0,0,0,0,0,0,0,0,0,0,0,0,0,0,0,0,0,0,0,0,0,0,0,0,0,0,0,0,0,0,0,0,0,0,0,0,0,0,0,0,0,0,0,0,0,0,0,0,0,0,0,0,0,0,0,0],"sum_hessian":[1.82415E5,1.63575E5,1.884E4,1.10024E5,5.3551E4,1.5266E4,3.574E3,1.05817E5,4.207E3,3.5944E4,1.7607E4,1.0784E4,4.482E3,2.136E3,1.438E3,4.1413E4,6.4404E4,1.656E3,2.551E3,1.6679E4,1.9265E4,7.792E3,9.815E3,5.713E3,5.071E3,2.319E3,2.163E3,1.336E3,8E2,7.09E2,7.29E2,3.0833E4,1.058E4,6.2132E4,2.272E3,2.31E2,1.425E3,1.818E3,7.33E2,1.1102E4,5.577E3,1.2885E4,6.38E3,7.481E3,3.11E2,9.563E3,2.52E2,3.052E3,2.661E3,3.031E3,2.04E3,2.125E3,1.94E2,6.47E2,1.516E3,5.37E2,7.99E2,1.9E2,6.1E2,6.54E2,5.5E1,7.25E2,4E0,2.9241E4,1.592E3,4.413E3,6.167E3,1.3526E4,4.8606E4,1.27E3,1.002E3,7.5E1,1.56E2,1.15E2,1.31E3,1.129E3,6.89E2,6.18E2,1.15E2,1.008E3,1.0094E4,4.926E3,6.51E2,1.2388E4,4.97E2,1.699E3,4.681E3,1.848E3,5.633E3,6E1,2.51E2,8.162E3,1.401E3,1.15E2,1.37E2,3.003E3,4.9E1,2.582E3,7.9E1,2.529E3,5.02E2,2.005E3,3.5E1,1.209E3,9.16E2,1.66E2,2.8E1,6.1E2,3.7E1,5.07E2,1.009E3,5.34E2,3E0,4.22E2,3.77E2,6.5E2,4E0,1.8E1,3.7E1,5.11E2,2.14E2,3E0,1E0],"tree_param":{"num_deleted":"0","num_feature":"8","num_nodes":"123","size_leaf_vector":"1"}},{"base_weights":[2.8044416E-4,-4.4442084E-1,3.8611403E0,-8.987409E-1,4.8900843E-1,2.8907332E0,7.15094E0,-9.331285E-1,-3.3786546E-2,1.6003017E-1,1.1605574E0,2.2933362E0,3.7898805E0,5.6641293E0,8.511044E0,-6.698214E-1,-1.0701485E0,-4.3874633E-1,1.040911E-1,-7.866987E-2,3.666821E-1,8.984457E-1,1.3685317E0,2.066264E0,2.720512E0,3.3378842E0,4.23964E0,5.142474E0,5.9396434E0,7.92345E0,9.714816E0,-6.9958764E-1,-1.4433046E-1,-1.0944613E0,-4.2334574E-1,-7.438956E-1,5.535189E-1,-7.842932E-1,1.5965503E-1,9.191521E-2,-2.0906332E-1,5.6712335E-1,2.5093278E-1,8.682838E-1,1.6188722E0,1.3440225E0,2.2896287E0,1.9492148E0,2.3144228E0,2.58556E0,2.8954597E0,3.4853837E0,3.0881627E0,4.3261724E0,3.1939847E0,5.194647E0,2.95241E0,6.05777E0,4.6065054E0,7.445316E0,8.451707E0,9.132716E0,1.0300694E1,-3.8865607E-2,-2.4970433E-2,1.4325953E-2,-1.4177352E-2,-6.2591456E-2,-5.2594252E-2,-2.3769805E-2,-9.412672E-3,-4.0420173E-3,-6.185634E-2,3.854685E-2,-1.3868523E-2,2.3271981E-1,-4.1957345E-2,1.0480165E-2,-5.8611717E-2,5.918678E-4,1.2056029E-2,-1.2638785E-2,1.3936385E-2,1.6226329E-2,3.8785916E-2,1.0046876E-2,5.513485E-2,3.998301E-2,4.932756E-2,3.3893242E-2,9.201158E-2,6.4482845E-2,8.298012E-2,6.4124845E-2,1.4048685E-1,9.1971435E-2,1.0240636E-1,1.138595E-1,1.6601013E-1,1.07533254E-1,1.3396044E-1,1.4127938E-1,2.1410461E-1,1.7636423E-1,7.926743E-2,9.331395E-2,1.5702066E-1,2.0332995E-1,2.2896361E-1,1.3432953E-1,1.9088735E-1,2.71685E-1,2.4183519E-1,1.9593361E-1,9.467156E-2,3.0517977E-1,1.9403742E-1,1.1370609E-1,2.4701488E-1,3.7441233E-1,2.9963398E-1,4.293413E-1,3.3601913E-1,4.2460814E-1,5.318837E-1,5.5514777E-1,4.4606414E-1],"categories":[],"categories_nodes":[],"categories_segments":[],"categories_sizes":[],"default_left":[0,0,0,0,0,0,0,0,0,0,0,0,0,0,0,0,0,0,0,0,0,0,0,0,0,0,0,0,0,0,0,0,0,0,0,0,0,0,0,0,0,0,0,0,0,0,0,0,0,0,0,0,0,0,0,0,0,0,0,0,0,0,0,0,0,0,0,0,0,0,0,0,0,0,0,0,0,0,0,0,0,0,0,0,0,0,0,0,0,0,0,0,0,0,0,0,0,0,0,0,0,0,0,0,0,0,0,0,0,0,0,0,0,0,0,0,0,0,0,0,0,0,0,0,0,0,0],"id":7,"left_children":[1,3,5,7,9,11,13,15,17,19,21,23,25,27,29,31,33,35,37,39,41,43,45,47,49,51,53,55,57,59,61,63,65,67,69,71,73,75,77,79,81,83,85,87,89,91,93,95,97,99,101,103,105,107,109,111,113,115,117,119,121,123,125,-1,-1,-1,-1,-1,-1,-1,-1,-1,-1,-1,-1,-1,-1,-1,-1,-1,-1,-1,-1,-1,-1,-1,-1,-1,-1,-1,-1,-1,-1,-1,-1,-1,-1,-1,-1,-1,-1,-1,-1,-1,-1,-1,-1,-1,-1,-1,-1,-1,-1,-1,-1,-1,-1,-1,-1,-1,-1,-1,-1,-1,-1,-1,-1],"loss_changes":[3.1319712E5,6.936904E4,6.0128156E4,3.2725234E3,1.183079E4,7.8073516E3,8.629109E3,3.8170156E3,2.3499893E2,1.7731177E3,9.5862695E2,8.4264453E2,1.1663594E3,2.6452344E2,1.5067344E3,5.6646484E2,1.0940156E3,3.2409317E2,1.5512228E2,3.710354E2,4.4684692E2,1.6793262E2,2.1852148E2,1.6146094E2,6.409961E1,9.60918E1,2.4921094E2,6.658789E1,1.8264453E2,3.1846094E2,1.5489062E2,5.329531E2,1.1662511E2,4.4810156E2,3.078357E1,2.674183E2,4.5737724E1,5.9097206E1,1.968952E2,8.6345665E1,2.0165347E2,3.5661108E2,5.1994403E2,5.9934082E1,6.374243E1,1.6194531E2,1.2892236E2,3.8463867E1,6.0820312E1,6.433008E1,1.15015625E2,1.3898828E2,6.3472656E1,1.5758203E2,6.1270752E1,3.353125E1,1.2022034E1,9.852344E1,7.673926E1,5.078125E0,1.0838672E2,2.7116797E2,2.9491406E2,0E0,0E0,0E0,0E0,0E0,0E0,0E0,0E0,0E0,0E0,0E0,0E0,0E0,0E0,0E0,0E0,0E0,0E0,0E0,0E0,0E0,0E0,0E0,0E0,0E0,0E0,0E0,0E0,0E0,0E0,0E0,0E0,0E0,0E0,0E0,0E0,0E0,0E0,0E0,0E0,0E0,0E0,0E0,0E0,0E0,0E0,0E0,0E0,0E0,0E0,0E0,0E0,0E0,0E0,0E0,0E0,0E0,0E0,0E0,0E0,0E0,0E0,0E0,0E0],"parents":[2147483647,0,0,1,1,2,2,3,3,4,4,5,5,6,6,7,7,8,8,9,9,10,10,11,11,12,12,13,13,14,14,15,15,16,16,17,17,18,18,19,19,20,20,21,21,22,22,23,23,24,24,25,25,26,26,27,27,28,28,29,29,30,30,31,31,32,32,33,33,34,34,35,35,36,36,37,37,38,38,39,39,40,40,41,41,42,42,43,43,44,44,45,45,46,46,47,47,48,48,49,49,50,50,51,51,52,52,53,53,54,54,55,55,56,56,57,57,58,58,59,59,60,60,61,61,62,62],"right_children":[2,4,6,8,10,12,14,16,18,20,22,24,26,28,30,32,34,36,38,40,42,44,46,48,50,52,54,56,58,60,62,64,66,68,70,72,74,76,78,80,82,84,86,88,90,92,94,96,98,100,102,104,106,108,110,112,114,116,118,120,122,124,126,-1,-1,-1,-1,-1,-1,-1,-1,-1,-1,-1,-1,-1,-1,-1,-1,-1,-1,-1,-1,-1,-1,-1,-1,-1,-1,-1,-1,-1,-1,-1,-1,-1,-1,-1,-1,-1,-1,-1,-1,-1,-1,-1,-1,-1,-1,-1,-1,-1,-1,-1,-1,-1,-1,-1,-1,-1,-1,-1,-1,-1,-1,-1,-1],"split_conditions":[4.3E0,1.3E0,9.2E0,3E0,2.8E0,6.1E0,1.2E1,2E0,4E0,1.9E0,3.4E0,5.3E0,7.4E0,1E1,1.66E1,1.1E0,1.1E0,7E-1,2E-1,3E0,3E0,4E0,4E0,5E0,5.8E0,5.16E2,3.87E2,3E0,3.99E2,1.4E1,2.42E2,3.26E2,1.2E0,2E-1,2.61E2,5E-1,4.7E2,1E-1,3E0,6.79E2,3E0,2.1E0,4E0,3.1E0,3E0,4.1E0,3.8E0,4.6E0,4E0,1.84E2,4E0,4.06E2,5.9E1,8.1E0,8.1E0,4.48E2,5E0,3E0,3E0,4.06E2,3.99E2,7.62E2,3.4E2,-3.8865607E-2,-2.4970433E-2,1.4325953E-2,-1.4177352E-2,-6.2591456E-2,-5.2594252E-2,-2.3769805E-2,-9.412672E-3,-4.0420173E-3,-6.185634E-2,3.854685E-2,-1.3868523E-2,2.3271981E-1,-4.1957345E-2,1.0480165E-2,-5.8611717E-2,5.918678E-4,1.2056029E-2,-1.2638785E-2,1.3936385E-2,1.6226329E-2,3.8785916E-2,1.0046876E-2,5.513485E-2,3.998301E-2,4.932756E-2,3.3893242E-2,9.201158E-2,6.4482845E-2,8.298012E-2,6.4124845E-2,1.4048685E-1,9.1971435E-2,1.0240636E-1,1.138595E-1,1.6601013E-1,1.07533254E-1,1.3396044E-1,1.4127938E-1,2.1410461E-1,1.7636423E-1,7.926743E-2,9.331395E-2,1.5702066E-1,2.0332995E-1,2.2896361E-1,1.3432953E-1,1.9088735E-1,2.71685E-1,2.4183519E-1,1.9593361E-1,9.467156E-2,3.0517977E-1,1.9403742E-1,1.1370609E-1,2.4701488E-1,3.7441233E-1,2.9963398E-1,4.293413E-1,3.3601913E-1,4.2460814E-1,5.318837E-1,5.5514777E-1,4.4606414E-1],"split_indices":[5,5,5,4,5,5,5,6,4,5,5,5,5,5,5,5,5,5,5,6,6,4,4,5,5,1,0,2,0,5,0,0,5,5,0,5,1,5,2,1,4,5,4,5,5,5,5,5,4,1,4,0,0,5,5,1,7,2,7,0,0,1,0,0,0,0,0,0,0,0,0,0,0,0,0,0,0,0,0,0,0,0,0,0,0,0,0,0,0,0,0,0,0,0,0,0,0,0,0,0,0,0,0,0,0,0,0,0,0,0,0,0,0,0,0,0,0,0,0,0,0,0,0,0,0,0,0],"split_type":[0,0,0,0,0,0,0,0,0,0,0,0,0,0,0,0,0,0,0,0,0,0,0,0,0,0,0,0,0,0,0,0,0,0,0,0,0,0,0,0,0,0,0,0,0,0,0,0,0,0,0,0,0,0,0,0,0,0,0,0,0,0,0,0,0,0,0,0,0,0,0,0,0,0,0,0,0,0,0,0,0,0,0,0,0,0,0,0,0,0,0,0,0,0,0,0,0,0,0,0,0,0,0,0,0,0,0,0,0,0,0,0,0,0,0,0,0,0,0,0,0,0,0,0,0,0,0],"sum_hessian":[1.82415E5,1.63575E5,1.884E4,1.10024E5,5.3551E4,1.455E4,4.29E3,1.05817E5,4.207E3,3.5944E4,1.7607E4,8.744E3,5.806E3,2.052E3,2.238E3,3.622E4,6.9597E4,1.068E3,3.139E3,1.6679E4,1.9265E4,7.792E3,9.815E3,5.713E3,3.031E3,2.9E3,2.906E3,7.16E2,1.336E3,1.509E3,7.29E2,3.4278E4,1.942E3,6.7075E4,2.522E3,8.17E2,2.51E2,1.84E2,2.955E3,7.226E3,9.453E3,7.051E3,1.2214E4,7.481E3,3.11E2,9.563E3,2.52E2,3.888E3,1.825E3,1.72E3,1.311E3,1.815E3,1.085E3,2.681E3,2.25E2,6.98E2,1.8E1,1.224E3,1.12E2,8E2,7.09E2,3.74E2,3.55E2,2.4689E4,9.589E3,4.74E2,1.468E3,1.4277E4,5.2798E4,2.064E3,4.58E2,3.49E2,4.68E2,1.99E2,5.2E1,1E0,1.83E2,2.849E3,1.06E2,4.703E3,2.523E3,8.676E3,7.77E2,3.261E3,3.79E3,1.1538E4,6.76E2,4.739E3,2.742E3,6E1,2.51E2,8.162E3,1.401E3,8.7E1,1.65E2,1.852E3,2.036E3,1.763E3,6.2E1,3.09E2,1.411E3,1.251E3,6E1,1.775E3,4E1,4.6E1,1.039E3,1.332E3,1.349E3,1.27E2,9.8E1,4.1E2,2.88E2,8E0,1E1,1.197E3,2.7E1,1.5E1,9.7E1,7.73E2,2.7E1,6.54E2,5.5E1,2.67E2,1.07E2,2.2E2,1.35E2],"tree_param":{"num_deleted":"0","num_feature":"8","num_nodes":"127","size_leaf_vector":"1"}},{"base_weights":[3.1020198E-4,-4.221962E-1,3.6684756E0,-8.538048E-1,4.6457106E-1,2.7463572E0,6.7945724E0,-8.864741E-1,-3.2073118E-2,1.3485473E-1,1.0695238E0,2.1787918E0,3.600604E0,5.3817334E0,8.0870075E0,-6.605349E-1,-1.0317447E0,2.484903E-1,-2.1422888E-1,-7.473551E-2,3.2925114E-1,8.199859E-1,1.300141E0,1.9630338E0,2.5846832E0,3.1711643E0,4.027919E0,4.8864717E0,5.6433043E0,7.5282307E0,9.231757E0,-8.0917305E-1,-5.351974E-1,-1.054681E0,-4.0432376E-1,3.541503E-2,6.7612344E-1,-3.5515207E-1,1.3529907E-1,-1.7647167E-1,1.2778354E-1,3.0132204E-1,1.0711805E0,7.1928966E-1,9.788689E-1,1.2768368E0,2.175956E0,1.8518041E0,2.198855E0,2.4564223E0,2.7509575E0,3.3112555E0,2.9339852E0,4.1100245E0,3.0357244E0,4.935649E0,2.8200846E0,5.1604843E0,5.9609466E0,7.073891E0,8.030199E0,9.69794E0,8.542788E0,-4.5559164E-2,-3.216631E-2,-2.8369531E-2,1.3369313E-4,-6.0198512E-2,-5.065565E-2,-1.5758235E-2,-2.5845144E-2,-9.7241375E-4,1.2053385E-1,4.088484E-2,-5.7645943E-2,-2.7625887E-2,-1.5707704E-3,1.6571114E-2,-4.5621064E-2,1.0639435E-2,-1.07680475E-2,3.9620767E-3,2.4720361E-2,2.5196506E-2,8.712384E-3,8.396158E-2,1.8907882E-2,1.7148767E-2,3.941866E-2,5.4779448E-2,4.4628642E-2,6.125909E-2,7.883407E-2,7.047058E-2,1.402265E-1,8.737534E-2,9.7288564E-2,1.0816976E-1,1.5784138E-1,2.3382378E-1,1.2190487E-1,1.3422105E-1,2.0357488E-1,1.67551E-1,7.540072E-2,8.8747516E-2,1.4917718E-1,2.1651275E-1,1.9073336E-1,1.2766552E-1,1.8143938E-1,2.581338E-1,2.2978528E-1,1.8722545E-1,9.036831E-2,2.5966603E-1,-2.607212E-2,2.7146342E-1,3.2700753E-1,3.2966235E-1,3.6062822E-1,4.0790692E-1,3.195182E-1,4.900839E-1,1.5132515E-1,-3.6331885E-2,4.6178204E-1],"categories":[],"categories_nodes":[],"categories_segments":[],"categories_sizes":[],"default_left":[0,0,0,0,0,0,0,0,0,0,0,0,0,0,0,0,0,0,0,0,0,0,0,0,0,0,0,0,0,0,0,0,0,0,0,0,0,0,0,0,0,0,0,0,0,0,0,0,0,0,0,0,0,0,0,0,0,0,0,0,0,0,0,0,0,0,0,0,0,0,0,0,0,0,0,0,0,0,0,0,0,0,0,0,0,0,0,0,0,0,0,0,0,0,0,0,0,0,0,0,0,0,0,0,0,0,0,0,0,0,0,0,0,0,0,0,0,0,0,0,0,0,0,0,0,0,0],"id":8,"left_children":[1,3,5,7,9,11,13,15,17,19,21,23,25,27,29,31,33,35,37,39,41,43,45,47,49,51,53,55,57,59,61,63,65,67,69,71,73,75,77,79,81,83,85,87,89,91,93,95,97,99,101,103,105,107,109,111,113,115,117,119,121,123,125,-1,-1,-1,-1,-1,-1,-1,-1,-1,-1,-1,-1,-1,-1,-1,-1,-1,-1,-1,-1,-1,-1,-1,-1,-1,-1,-1,-1,-1,-1,-1,-1,-1,-1,-1,-1,-1,-1,-1,-1,-1,-1,-1,-1,-1,-1,-1,-1,-1,-1,-1,-1,-1,-1,-1,-1,-1,-1,-1,-1,-1,-1,-1,-1],"loss_changes":[2.8271412E5,6.260688E4,5.4293016E4,2.9536328E3,1.0681487E4,7.0470703E3,7.7918594E3,3.4725234E3,2.1510834E2,1.4122787E3,1.0860684E3,7.607617E2,1.0528438E3,2.3838281E2,1.3627031E3,7.711074E2,9.2639844E2,1.5095865E2,1.257509E2,3.4368903E2,3.7231055E2,1.4450244E2,1.9756836E2,1.458086E2,5.790625E1,8.6677734E1,2.2434375E2,5.894336E1,1.7428906E2,2.875703E2,1.5161719E2,3.1991113E2,3.8910498E2,3.8435938E2,2.2652191E1,1.4430527E2,1.436207E2,1.16206696E2,1.5112637E2,1.6812363E2,9.923053E1,4.4614685E2,2.7411346E2,1.4424756E2,3.445703E1,1.4619922E2,1.1795032E2,3.4713867E1,5.519922E1,5.8612305E1,1.0434766E2,1.2516016E2,5.708496E1,1.579336E2,5.53938E1,3.0220703E1,1.101976E1,1.03083984E2,2.1085156E2,5.8359375E0,9.682422E1,2.6654297E2,1.9526816E3,0E0,0E0,0E0,0E0,0E0,0E0,0E0,0E0,0E0,0E0,0E0,0E0,0E0,0E0,0E0,0E0,0E0,0E0,0E0,0E0,0E0,0E0,0E0,0E0,0E0,0E0,0E0,0E0,0E0,0E0,0E0,0E0,0E0,0E0,0E0,0E0,0E0,0E0,0E0,0E0,0E0,0E0,0E0,0E0,0E0,0E0,0E0,0E0,0E0,0E0,0E0,0E0,0E0,0E0,0E0,0E0,0E0,0E0,0E0,0E0,0E0,0E0,0E0,0E0],"parents":[2147483647,0,0,1,1,2,2,3,3,4,4,5,5,6,6,7,7,8,8,9,9,10,10,11,11,12,12,13,13,14,14,15,15,16,16,17,17,18,18,19,19,20,20,21,21,22,22,23,23,24,24,25,25,26,26,27,27,28,28,29,29,30,30,31,31,32,32,33,33,34,34,35,35,36,36,37,37,38,38,39,39,40,40,41,41,42,42,43,43,44,44,45,45,46,46,47,47,48,48,49,49,50,50,51,51,52,52,53,53,54,54,55,55,56,56,57,57,58,58,59,59,60,60,61,61,62,62],"right_children":[2,4,6,8,10,12,14,16,18,20,22,24,26,28,30,32,34,36,38,40,42,44,46,48,50,52,54,56,58,60,62,64,66,68,70,72,74,76,78,80,82,84,86,88,90,92,94,96,98,100,102,104,106,108,110,112,114,116,118,120,122,124,126,-1,-1,-1,-1,-1,-1,-1,-1,-1,-1,-1,-1,-1,-1,-1,-1,-1,-1,-1,-1,-1,-1,-1,-1,-1,-1,-1,-1,-1,-1,-1,-1,-1,-1,-1,-1,-1,-1,-1,-1,-1,-1,-1,-1,-1,-1,-1,-1,-1,-1,-1,-1,-1,-1,-1,-1,-1,-1,-1,-1,-1,-1,-1,-1],"split_conditions":[4.3E0,1.3E0,9.2E0,3E0,2.7E0,6.1E0,1.2E1,3E0,1E0,1.9E0,3.4E0,5.3E0,7.4E0,1E1,1.66E1,2.82E2,1.1E0,9E0,2E0,2.82E2,4E0,2.07E2,4E0,5E0,5.8E0,5.16E2,3.87E2,3E0,1E0,1.4E1,5.73E2,6.58E2,1.1E0,2E-1,4.7E2,1.2E0,9.75E2,6E-1,3E0,4.6E1,1.045E3,3E0,2.1E0,2.8E0,2.9E2,4.1E0,4E0,4.6E0,4E0,3.9E1,4E0,4.06E2,5.9E1,4.48E2,8.1E0,4.48E2,5E0,1.239E3,1.09E1,2E0,3.99E2,4.06E2,6.27E2,-4.5559164E-2,-3.216631E-2,-2.8369531E-2,1.3369313E-4,-6.0198512E-2,-5.065565E-2,-1.5758235E-2,-2.5845144E-2,-9.7241375E-4,1.2053385E-1,4.088484E-2,-5.7645943E-2,-2.7625887E-2,-1.5707704E-3,1.6571114E-2,-4.5621064E-2,1.0639435E-2,-1.07680475E-2,3.9620767E-3,2.4720361E-2,2.5196506E-2,8.712384E-3,8.396158E-2,1.8907882E-2,1.7148767E-2,3.941866E-2,5.4779448E-2,4.4628642E-2,6.125909E-2,7.883407E-2,7.047058E-2,1.402265E-1,8.737534E-2,9.7288564E-2,1.0816976E-1,1.5784138E-1,2.3382378E-1,1.2190487E-1,1.3422105E-1,2.0357488E-1,1.67551E-1,7.540072E-2,8.8747516E-2,1.4917718E-1,2.1651275E-1,1.9073336E-1,1.2766552E-1,1.8143938E-1,2.581338E-1,2.2978528E-1,1.8722545E-1,9.036831E-2,2.5966603E-1,-2.607212E-2,2.7146342E-1,3.2700753E-1,3.2966235E-1,3.6062822E-1,4.0790692E-1,3.195182E-1,4.900839E-1,1.5132515E-1,-3.6331885E-2,4.6178204E-1],"split_indices":[5,5,5,4,5,5,5,6,2,5,5,5,5,5,5,0,5,4,2,0,4,0,4,5,5,1,0,2,2,5,1,1,5,5,1,5,1,5,2,0,1,6,5,5,0,5,5,5,4,0,4,0,0,1,5,1,7,1,5,6,0,0,1,0,0,0,0,0,0,0,0,0,0,0,0,0,0,0,0,0,0,0,0,0,0,0,0,0,0,0,0,0,0,0,0,0,0,0,0,0,0,0,0,0,0,0,0,0,0,0,0,0,0,0,0,0,0,0,0,0,0,0,0,0,0,0,0],"split_type":[0,0,0,0,0,0,0,0,0,0,0,0,0,0,0,0,0,0,0,0,0,0,0,0,0,0,0,0,0,0,0,0,0,0,0,0,0,0,0,0,0,0,0,0,0,0,0,0,0,0,0,0,0,0,0,0,0,0,0,0,0,0,0,0,0,0,0,0,0,0,0,0,0,0,0,0,0,0,0,0,0,0,0,0,0,0,0,0,0,0,0,0,0,0,0,0,0,0,0,0,0,0,0,0,0,0,0,0,0,0,0,0,0,0,0,0,0,0,0,0,0,0,0,0,0,0,0],"sum_hessian":[1.82415E5,1.63575E5,1.884E4,1.10024E5,5.3551E4,1.455E4,4.29E3,1.05817E5,4.207E3,3.4661E4,1.889E4,8.744E3,5.806E3,2.052E3,2.238E3,4.1413E4,6.4404E4,1.656E3,2.551E3,1.6679E4,1.7982E4,9.075E3,9.815E3,5.713E3,3.031E3,2.9E3,2.906E3,7.16E2,1.336E3,1.509E3,7.29E2,1.8943E4,2.247E4,6.2132E4,2.272E3,1.106E3,5.5E2,1.818E3,7.33E2,1.1102E4,5.577E3,1.7331E4,6.51E2,5.558E3,3.517E3,9.563E3,2.52E2,3.888E3,1.825E3,1.72E3,1.311E3,1.815E3,1.085E3,2.681E3,2.25E2,6.98E2,1.8E1,5.37E2,7.99E2,8E2,7.09E2,4.27E2,3.02E2,1.1726E4,7.217E3,2.1201E4,1.269E3,1.3526E4,4.8606E4,1.27E3,1.002E3,1.082E3,2.4E1,5.11E2,3.9E1,1.129E3,6.89E2,6.18E2,1.15E2,1.008E3,1.0094E4,4.926E3,6.51E2,6.679E3,1.0652E4,3.46E2,3.05E2,8.63E2,4.695E3,1.49E3,2.027E3,8.162E3,1.401E3,1.15E2,1.37E2,1.852E3,2.036E3,1.763E3,6.2E1,1.2E1,1.708E3,1.251E3,6E1,1.775E3,4E1,4.6E1,1.039E3,1.528E3,1.153E3,1.27E2,9.8E1,4.1E2,2.88E2,8E0,1E1,5.34E2,3E0,4.22E2,3.77E2,1.9E2,6.1E2,6.54E2,5.5E1,4.2E2,7E0,2.1E1,2.81E2],"tree_param":{"num_deleted":"0","num_feature":"8","num_nodes":"127","size_leaf_vector":"1"}},{"base_weights":[3.3241723E-4,-4.010836E-1,3.4853928E0,-8.111165E-1,4.4135508E-1,2.6092002E0,6.455795E0,-8.4218526E-1,-3.1184671E-2,1.09050795E-1,9.833912E-1,2.069983E0,3.42078E0,5.113425E0,7.6837673E0,-6.2748545E-1,-9.802411E-1,-4.0168068E-1,9.5903024E-2,-7.099701E-2,2.908248E-1,7.4876976E-1,1.2351696E0,1.864961E0,2.4556777E0,3.0127718E0,3.826769E0,4.6432157E0,5.3617616E0,7.152758E0,8.77163E0,-6.953889E-1,-3.7870568E-1,-1.0020354E0,-3.8412583E-1,-6.895192E-1,5.2412E-1,-7.395413E-1,1.4815651E-1,8.664063E-2,-1.9149376E-1,2.6066598E-1,1.0523881E0,9.4765735E-1,6.5120256E-1,1.2130096E0,2.0679908E0,1.7205161E0,2.0299215E0,2.5192578E0,2.1309993E0,3.165098E0,2.8129911E0,3.5532196E0,4.099943E0,4.6895647E0,2.6936905E0,5.471781E0,4.121627E0,6.7210584E0,7.6297135E0,8.80622E0,1.9949685E0,-3.6097493E-2,-9.954781E-3,-1.1057357E-2,-2.4408635E-2,-5.7188805E-2,-4.812818E-2,-1.4970941E-2,-2.4554174E-2,-3.3140387E-3,-5.7807203E-2,3.694036E-2,-1.369485E-2,2.2648755E-1,-3.963985E-2,9.690018E-3,-5.3448785E-2,6.1780715E-4,1.1252548E-2,-1.1642994E-2,1.3505346E-2,2.2429159E-2,7.051191E-3,7.977561E-2,1.9135935E-2,4.4319E-2,5.9469502E-2,2.0151377E-2,3.7472133E-2,5.8196515E-2,7.489517E-2,5.747155E-2,1.2712403E-1,8.67431E-2,5.5123117E-2,9.0396166E-2,1.0659055E-1,1.1871727E-1,1.356751E-1,9.838671E-2,1.2458104E-1,1.6183901E-1,1.0545959E-1,8.7611E-2,1.4267114E-1,1.7387192E-1,2.6625404E-1,2.0687668E-1,1.0926192E-1,2.3565865E-1,1.1779525E-1,1.7890432E-1,8.626066E-2,2.7577004E-1,1.7050259E-1,2.6900843E-2,2.1587744E-1,3.3804187E-1,2.6907173E-1,3.8754272E-1,3.0382758E-1,4.1987997E-1,4.8691735E-1,1.8582629E-1,-1.22281514E-1],"categories":[],"categories_nodes":[],"categories_segments":[],"categories_sizes":[],"default_left":[0,0,0,0,0,0,0,0,0,0,0,0,0,0,0,0,0,0,0,0,0,0,0,0,0,0,0,0,0,0,0,0,0,0,0,0,0,0,0,0,0,0,0,0,0,0,0,0,0,0,0,0,0,0,0,0,0,0,0,0,0,0,0,0,0,0,0,0,0,0,0,0,0,0,0,0,0,0,0,0,0,0,0,0,0,0,0,0,0,0,0,0,0,0,0,0,0,0,0,0,0,0,0,0,0,0,0,0,0,0,0,0,0,0,0,0,0,0,0,0,0,0,0,0,0,0,0],"id":9,"left_children":[1,3,5,7,9,11,13,15,17,19,21,23,25,27,29,31,33,35,37,39,41,43,45,47,49,51,53,55,57,59,61,63,65,67,69,71,73,75,77,79,81,83,85,87,89,91,93,95,97,99,101,103,105,107,109,111,113,115,117,119,121,123,125,-1,-1,-1,-1,-1,-1,-1,-1,-1,-1,-1,-1,-1,-1,-1,-1,-1,-1,-1,-1,-1,-1,-1,-1,-1,-1,-1,-1,-1,-1,-1,-1,-1,-1,-1,-1,-1,-1,-1,-1,-1,-1,-1,-1,-1,-1,-1,-1,-1,-1,-1,-1,-1,-1,-1,-1,-1,-1,-1,-1,-1,-1,-1,-1],"loss_changes":[2.5519392E5,5.650403E4,4.9019594E4,2.6660469E3,9.645729E3,6.3606953E3,7.0339844E3,3.1356484E3,1.9855092E2,1.0865907E3,1.2013809E3,6.869414E2,9.50375E2,2.1483203E2,1.2306562E3,6.9932715E2,8.3626953E2,2.873615E2,1.3718588E2,3.1685022E2,3.791775E2,2.0387207E2,1.7864844E2,1.326582E2,5.721875E1,7.937891E1,2.0266016E2,5.2154297E1,1.5986328E2,2.596328E2,1.5354297E2,4.2869336E2,1.5308398E2,3.4647656E2,2.0446472E1,2.3897617E2,4.4061302E1,5.55058E1,1.6442659E2,7.4303345E1,1.8058353E2,3.5725623E2,2.2816522E2,5.028662E1,1.7214282E2,1.3198535E2,1.07347046E2,2.5157227E1,5.6359375E1,6.477344E1,2.4712158E1,1.1715234E2,4.9210938E1,1.7752344E2,9.518164E1,2.740625E1,1.0100876E1,9.136328E1,7.701538E1,6.296875E0,8.649219E1,1.947461E2,4.7312973E1,0E0,0E0,0E0,0E0,0E0,0E0,0E0,0E0,0E0,0E0,0E0,0E0,0E0,0E0,0E0,0E0,0E0,0E0,0E0,0E0,0E0,0E0,0E0,0E0,0E0,0E0,0E0,0E0,0E0,0E0,0E0,0E0,0E0,0E0,0E0,0E0,0E0,0E0,0E0,0E0,0E0,0E0,0E0,0E0,0E0,0E0,0E0,0E0,0E0,0E0,0E0,0E0,0E0,0E0,0E0,0E0,0E0,0E0,0E0,0E0,0E0,0E0,0E0,0E0],"parents":[2147483647,0,0,1,1,2,2,3,3,4,4,5,5,6,6,7,7,8,8,9,9,10,10,11,11,12,12,13,13,14,14,15,15,16,16,17,17,18,18,19,19,20,20,21,21,22,22,23,23,24,24,25,25,26,26,27,27,28,28,29,29,30,30,31,31,32,32,33,33,34,34,35,35,36,36,37,37,38,38,39,39,40,40,41,41,42,42,43,43,44,44,45,45,46,46,47,47,48,48,49,49,50,50,51,51,52,52,53,53,54,54,55,55,56,56,57,57,58,58,59,59,60,60,61,61,62,62],"right_children":[2,4,6,8,10,12,14,16,18,20,22,24,26,28,30,32,34,36,38,40,42,44,46,48,50,52,54,56,58,60,62,64,66,68,70,72,74,76,78,80,82,84,86,88,90,92,94,96,98,100,102,104,106,108,110,112,114,116,118,120,122,124,126,-1,-1,-1,-1,-1,-1,-1,-1,-1,-1,-1,-1,-1,-1,-1,-1,-1,-1,-1,-1,-1,-1,-1,-1,-1,-1,-1,-1,-1,-1,-1,-1,-1,-1,-1,-1,-1,-1,-1,-1,-1,-1,-1,-1,-1,-1,-1,-1,-1,-1,-1,-1,-1,-1,-1,-1,-1,-1,-1,-1,-1,-1,-1,-1],"split_conditions":[4.3E0,1.3E0,9.2E0,2E0,2.55E0,6.1E0,1.2E1,3E0,4E0,1.9E0,3.4E0,5.3E0,7.4E0,1E1,1.66E1,3.5E2,1.1E0,7E-1,2E-1,3E0,4E0,1E0,4E0,4.8E0,3.4E2,4.01E2,8.1E0,3E0,3.99E2,1.4E1,1.239E3,1.1E0,2.5E-1,2E-1,4.7E2,5E-1,4.7E2,1E-1,3E0,6.79E2,3E0,3E0,2.1E0,3.1E0,2.8E0,4.1E0,3.8E0,4.06E2,2E0,5.8E0,4.43E2,3.66E2,5.9E1,4E0,3E0,1.201E3,5E0,3E0,4.01E2,4.06E2,3.99E2,7.69E2,1E0,-3.6097493E-2,-9.954781E-3,-1.1057357E-2,-2.4408635E-2,-5.7188805E-2,-4.812818E-2,-1.4970941E-2,-2.4554174E-2,-3.3140387E-3,-5.7807203E-2,3.694036E-2,-1.369485E-2,2.2648755E-1,-3.963985E-2,9.690018E-3,-5.3448785E-2,6.1780715E-4,1.1252548E-2,-1.1642994E-2,1.3505346E-2,2.2429159E-2,7.051191E-3,7.977561E-2,1.9135935E-2,4.4319E-2,5.9469502E-2,2.0151377E-2,3.7472133E-2,5.8196515E-2,7.489517E-2,5.747155E-2,1.2712403E-1,8.67431E-2,5.5123117E-2,9.0396166E-2,1.0659055E-1,1.1871727E-1,1.356751E-1,9.838671E-2,1.2458104E-1,1.6183901E-1,1.0545959E-1,8.7611E-2,1.4267114E-1,1.7387192E-1,2.6625404E-1,2.0687668E-1,1.0926192E-1,2.3565865E-1,1.1779525E-1,1.7890432E-1,8.626066E-2,2.7577004E-1,1.7050259E-1,2.6900843E-2,2.1587744E-1,3.3804187E-1,2.6907173E-1,3.8754272E-1,3.0382758E-1,4.1987997E-1,4.8691735E-1,1.8582629E-1,-1.22281514E-1],"split_indices":[5,5,5,4,5,5,5,6,4,5,5,5,5,5,5,0,5,5,5,6,4,2,4,5,0,1,5,2,0,5,1,5,5,5,1,5,1,5,2,1,4,6,5,5,5,5,5,0,6,5,1,0,0,4,2,1,7,2,0,0,0,1,2,0,0,0,0,0,0,0,0,0,0,0,0,0,0,0,0,0,0,0,0,0,0,0,0,0,0,0,0,0,0,0,0,0,0,0,0,0,0,0,0,0,0,0,0,0,0,0,0,0,0,0,0,0,0,0,0,0,0,0,0,0,0,0,0],"split_type":[0,0,0,0,0,0,0,0,0,0,0,0,0,0,0,0,0,0,0,0,0,0,0,0,0,0,0,0,0,0,0,0,0,0,0,0,0,0,0,0,0,0,0,0,0,0,0,0,0,0,0,0,0,0,0,0,0,0,0,0,0,0,0,0,0,0,0,0,0,0,0,0,0,0,0,0,0,0,0,0,0,0,0,0,0,0,0,0,0,0,0,0,0,0,0,0,0,0,0,0,0,0,0,0,0,0,0,0,0,0,0,0,0,0,0,0,0,0,0,0,0,0,0,0,0,0,0],"sum_hessian":[1.82415E5,1.63575E5,1.884E4,1.10024E5,5.3551E4,1.455E4,4.29E3,1.05809E5,4.215E3,3.3199E4,2.0352E4,8.744E3,5.806E3,2.052E3,2.238E3,4.1412E4,6.4397E4,1.076E3,3.139E3,1.6679E4,1.652E4,1.0537E4,9.815E3,5.713E3,3.031E3,2.9E3,2.906E3,7.16E2,1.336E3,1.509E3,7.29E2,3.2531E4,8.881E3,6.2125E4,2.272E3,8.21E2,2.55E2,1.84E2,2.955E3,7.226E3,9.453E3,1.5892E4,6.28E2,3.465E3,7.072E3,9.563E3,2.52E2,3.052E3,2.661E3,2.529E3,5.02E2,1.637E3,1.263E3,1.459E3,1.447E3,6.98E2,1.8E1,1.224E3,1.12E2,8E2,7.09E2,7.25E2,4E0,3.0878E4,1.653E3,3.642E3,5.239E3,1.3526E4,4.8599E4,1.27E3,1.002E3,3.52E2,4.69E2,2.01E2,5.4E1,1E0,1.83E2,2.849E3,1.06E2,4.703E3,2.523E3,8.676E3,7.77E2,6.181E3,9.711E3,3.46E2,2.82E2,2.768E3,6.97E2,2.007E3,5.065E3,8.162E3,1.401E3,8.7E1,1.65E2,2.981E3,7.1E1,8.43E2,1.818E3,1.456E3,1.073E3,3.5E2,1.52E2,1.531E3,1.06E2,4.8E1,1.215E3,1.402E3,5.7E1,1.418E3,2.9E1,6.9E2,8E0,8E0,1E1,1.197E3,2.7E1,6E0,1.06E2,7.73E2,2.7E1,6.54E2,5.5E1,5.11E2,2.14E2,3E0,1E0],"tree_param":{"num_deleted":"0","num_feature":"8","num_nodes":"127","size_leaf_vector":"1"}},{"base_weights":[3.4947303E-4,-3.8102636E-1,3.3114228E0,-7.705618E-1,4.1929892E-1,2.4788823E0,6.1338387E0,-8.0007815E-1,-2.9600507E-2,5.4763272E-2,8.685684E-1,1.9665773E0,3.2499568E0,4.8583903E0,7.3005924E0,-5.7314515E-1,-9.181784E-1,2.2832422E-1,-1.9703323E-1,-6.7446314E-2,2.1295054E-1,6.377831E-1,1.1516085E0,1.7486444E0,2.2948506E0,2.8623047E0,3.635691E0,4.4119177E0,5.0941887E0,6.79598E0,8.334378E0,-5.9944844E-1,-1.08812876E-1,-9.390845E-1,-3.6206642E-1,9.629141E-1,1.0890283E-1,-3.3095467E-1,1.3539647E-1,-1.6219442E-1,1.2116173E-1,1.844281E-1,9.220903E-1,5.1937836E-1,8.1166506E-1,9.99771E-1,1.2693529E0,1.6345367E0,1.9056288E0,2.3622515E0,1.9593273E0,2.7529392E0,3.1182313E0,3.7134283E0,2.697074E0,3.8988948E0,4.6001253E0,4.641211E0,5.3924484E0,6.3857636E0,7.249202E0,8.795643E0,7.655318E0,-3.336709E-2,-2.1228625E-2,1.4911813E-2,-1.2017891E-2,-5.370565E-2,-4.5127362E-2,7.097555E-2,-1.8414894E-2,5.4701245E-3,6.849729E-2,1.7682299E-2,-1.1589576E-2,-2.540572E-2,-2.0335868E-3,-2.6868323E-2,2.0638214E-2,1.0074585E-2,-9.926448E-3,5.186069E-3,5.1906552E-2,1.8211013E-2,3.4416597E-3,7.5798325E-2,-2.1986652E-2,2.4423352E-2,8.2747675E-2,3.869584E-2,5.530101E-2,5.54909E-2,4.459679E-2,6.1843365E-2,1.2080612E-1,8.108415E-2,1.18705116E-1,9.382514E-2,1.3906698E-1,1.1165743E-1,1.2884355E-1,9.0811595E-2,1.1707496E-1,1.4001645E-1,1.011405E-1,1.326779E-1,1.6472872E-1,1.9609748E-1,1.7169644E-1,1.5798509E-1,1.0857519E-1,2.012441E-1,1.0425635E-1,2.3182419E-1,3.5937216E-2,2.3362117E-1,-3.4687143E-2,2.444009E-1,2.9713324E-1,2.9686722E-1,3.2577446E-1,3.6819518E-1,2.8890747E-1,4.5200515E-1,2.983981E-1,1.677941E-1,4.5399967E-1],"categories":[],"categories_nodes":[],"categories_segments":[],"categories_sizes":[],"default_left":[0,0,0,0,0,0,0,0,0,0,0,0,0,0,0,0,0,0,0,0,0,0,0,0,0,0,0,0,0,0,0,0,0,0,0,0,0,0,0,0,0,0,0,0,0,0,0,0,0,0,0,0,0,0,0,0,0,0,0,0,0,0,0,0,0,0,0,0,0,0,0,0,0,0,0,0,0,0,0,0,0,0,0,0,0,0,0,0,0,0,0,0,0,0,0,0,0,0,0,0,0,0,0,0,0,0,0,0,0,0,0,0,0,0,0,0,0,0,0,0,0,0,0,0,0,0,0],"id":10,"left_children":[1,3,5,7,9,11,13,15,17,19,21,23,25,27,29,31,33,35,37,39,41,43,45,47,49,51,53,55,57,59,61,63,65,67,69,71,73,75,77,79,81,83,85,87,89,91,93,95,97,99,101,103,105,107,109,111,113,115,117,119,121,123,125,-1,-1,-1,-1,-1,-1,-1,-1,-1,-1,-1,-1,-1,-1,-1,-1,-1,-1,-1,-1,-1,-1,-1,-1,-1,-1,-1,-1,-1,-1,-1,-1,-1,-1,-1,-1,-1,-1,-1,-1,-1,-1,-1,-1,-1,-1,-1,-1,-1,-1,-1,-1,-1,-1,-1,-1,-1,-1,-1,-1,-1,-1,-1,-1],"loss_changes":[2.3034952E5,5.0995977E4,4.425692E4,2.4062734E3,8.770419E3,5.741625E3,6.3501094E3,2.8352656E3,1.8211311E2,5.7156494E2,1.5661973E3,6.216172E2,8.5791797E2,1.9366016E2,1.1113594E3,4.4230762E2,8.087383E2,1.4551988E2,1.13881065E2,2.980955E2,2.604673E2,2.716753E2,1.9133105E2,9.1109375E1,7.420703E1,7.2615234E1,2.0209766E2,5.129492E1,1.5560938E2,2.344375E2,1.6132422E2,4.066953E2,1.04110115E2,3.2991406E2,2.8532776E1,8.044838E1,1.1923572E2,9.372977E1,1.3737486E2,1.467591E2,8.909723E1,2.5745624E2,4.0342627E2,2.7527002E2,5.861206E1,5.490381E1,2.2291699E2,2.5171875E1,5.1098633E1,7.454297E1,2.7958008E1,6.495508E1,6.180957E1,1.4284375E2,4.808911E1,3.7081543E1,6.990918E1,9.2828125E1,1.9298828E2,7.9101562E0,7.725E1,2.4190625E2,1.8254961E3,0E0,0E0,0E0,0E0,0E0,0E0,0E0,0E0,0E0,0E0,0E0,0E0,0E0,0E0,0E0,0E0,0E0,0E0,0E0,0E0,0E0,0E0,0E0,0E0,0E0,0E0,0E0,0E0,0E0,0E0,0E0,0E0,0E0,0E0,0E0,0E0,0E0,0E0,0E0,0E0,0E0,0E0,0E0,0E0,0E0,0E0,0E0,0E0,0E0,0E0,0E0,0E0,0E0,0E0,0E0,0E0,0E0,0E0,0E0,0E0,0E0,0E0,0E0,0E0],"parents":[2147483647,0,0,1,1,2,2,3,3,4,4,5,5,6,6,7,7,8,8,9,9,10,10,11,11,12,12,13,13,14,14,15,15,16,16,17,17,18,18,19,19,20,20,21,21,22,22,23,23,24,24,25,25,26,26,27,27,28,28,29,29,30,30,31,31,32,32,33,33,34,34,35,35,36,36,37,37,38,38,39,39,40,40,41,41,42,42,43,43,44,44,45,45,46,46,47,47,48,48,49,49,50,50,51,51,52,52,53,53,54,54,55,55,56,56,57,57,58,58,59,59,60,60,61,61,62,62],"right_children":[2,4,6,8,10,12,14,16,18,20,22,24,26,28,30,32,34,36,38,40,42,44,46,48,50,52,54,56,58,60,62,64,66,68,70,72,74,76,78,80,82,84,86,88,90,92,94,96,98,100,102,104,106,108,110,112,114,116,118,120,122,124,126,-1,-1,-1,-1,-1,-1,-1,-1,-1,-1,-1,-1,-1,-1,-1,-1,-1,-1,-1,-1,-1,-1,-1,-1,-1,-1,-1,-1,-1,-1,-1,-1,-1,-1,-1,-1,-1,-1,-1,-1,-1,-1,-1,-1,-1,-1,-1,-1,-1,-1,-1,-1,-1,-1,-1,-1,-1,-1,-1,-1,-1,-1,-1,-1],"split_conditions":[4.3E0,1.3E0,9.2E0,2E0,2.4E0,6.1E0,1.2E1,2E0,1E0,1.9E0,3.3E0,5.2E0,7.4E0,1E1,1.66E1,1.1E0,1.1E0,1.86E2,2E0,2.82E2,4E0,1.73E2,3.8E0,4.8E0,3.5E2,7E0,3.87E2,2E0,1E0,1.4E1,5.73E2,3.26E2,1.2E0,2E-1,2.7E1,1.26E2,1.54E2,6E-1,7E0,4.6E1,9E0,3E0,2.1E0,4E0,3.1E0,4.37E2,4E0,3E0,4E0,5.8E0,4.43E2,3.87E2,2E0,4.48E2,7E0,3E0,1.201E3,1.239E3,1.09E1,2E0,3.99E2,3.96E2,7.62E2,-3.336709E-2,-2.1228625E-2,1.4911813E-2,-1.2017891E-2,-5.370565E-2,-4.5127362E-2,7.097555E-2,-1.8414894E-2,5.4701245E-3,6.849729E-2,1.7682299E-2,-1.1589576E-2,-2.540572E-2,-2.0335868E-3,-2.6868323E-2,2.0638214E-2,1.0074585E-2,-9.926448E-3,5.186069E-3,5.1906552E-2,1.8211013E-2,3.4416597E-3,7.5798325E-2,-2.1986652E-2,2.4423352E-2,8.2747675E-2,3.869584E-2,5.530101E-2,5.54909E-2,4.459679E-2,6.1843365E-2,1.2080612E-1,8.108415E-2,1.18705116E-1,9.382514E-2,1.3906698E-1,1.1165743E-1,1.2884355E-1,9.0811595E-2,1.1707496E-1,1.4001645E-1,1.011405E-1,1.326779E-1,1.6472872E-1,1.9609748E-1,1.7169644E-1,1.5798509E-1,1.0857519E-1,2.012441E-1,1.0425635E-1,2.3182419E-1,3.5937216E-2,2.3362117E-1,-3.4687143E-2,2.444009E-1,2.9713324E-1,2.9686722E-1,3.2577446E-1,3.6819518E-1,2.8890747E-1,4.5200515E-1,2.983981E-1,1.677941E-1,4.5399967E-1],"split_indices":[5,5,5,4,5,5,5,6,2,5,5,5,5,5,5,5,5,0,2,0,4,0,5,5,0,5,0,6,2,5,1,0,5,5,0,0,1,5,4,0,4,6,5,4,5,1,4,2,4,5,1,0,6,1,7,2,1,1,5,6,0,0,1,0,0,0,0,0,0,0,0,0,0,0,0,0,0,0,0,0,0,0,0,0,0,0,0,0,0,0,0,0,0,0,0,0,0,0,0,0,0,0,0,0,0,0,0,0,0,0,0,0,0,0,0,0,0,0,0,0,0,0,0,0,0,0,0],"split_type":[0,0,0,0,0,0,0,0,0,0,0,0,0,0,0,0,0,0,0,0,0,0,0,0,0,0,0,0,0,0,0,0,0,0,0,0,0,0,0,0,0,0,0,0,0,0,0,0,0,0,0,0,0,0,0,0,0,0,0,0,0,0,0,0,0,0,0,0,0,0,0,0,0,0,0,0,0,0,0,0,0,0,0,0,0,0,0,0,0,0,0,0,0,0,0,0,0,0,0,0,0,0,0,0,0,0,0,0,0,0,0,0,0,0,0,0,0,0,0,0,0,0,0,0,0,0,0],"sum_hessian":[1.82415E5,1.63575E5,1.884E4,1.10024E5,5.3551E4,1.455E4,4.29E3,1.05809E5,4.215E3,2.9564E4,2.3987E4,8.744E3,5.806E3,2.052E3,2.238E3,3.6219E4,6.959E4,1.659E3,2.556E3,1.6679E4,1.2885E4,1.3215E4,1.0772E4,5.259E3,3.485E3,2.9E3,2.906E3,7.16E2,1.336E3,1.509E3,7.29E2,3.4277E4,1.942E3,6.7068E4,2.522E3,2.31E2,1.428E3,1.822E3,7.34E2,1.1102E4,5.577E3,1.2388E4,4.97E2,7.864E3,5.351E3,4.709E3,6.063E3,3.052E3,2.207E3,2.897E3,5.88E2,2.04E3,8.6E2,2.681E3,2.25E2,1.98E2,5.18E2,5.37E2,7.99E2,8E2,7.09E2,4.27E2,3.02E2,2.4689E4,9.588E3,4.74E2,1.468E3,1.4277E4,5.2791E4,8E0,2.514E3,7.5E1,1.56E2,8.31E2,5.97E2,1.131E3,6.91E2,2.14E2,5.2E2,1.008E3,1.0094E4,5.474E3,1.03E2,4.847E3,7.541E3,3.46E2,1.51E2,7.657E3,2.07E2,4.746E3,6.05E2,2.326E3,2.383E3,5.898E3,1.65E2,3.003E3,4.9E1,2.139E3,6.8E1,1.816E3,1.081E3,4.32E2,1.56E2,1.913E3,1.27E2,2.41E2,6.19E2,1.528E3,1.153E3,1.17E2,1.08E2,1.84E2,1.4E1,5.13E2,5E0,5.34E2,3E0,4.22E2,3.77E2,1.9E2,6.1E2,6.54E2,5.5E1,3.91E2,3.6E1,7.6E1,2.26E2],"tree_param":{"num_deleted":"0","num_feature":"8","num_nodes":"127","size_leaf_vector":"1"}},{"base_weights":[3.6809716E-4,-3.702002E-1,3.076389E0,-7.320342E-1,3.8408467E-1,2.3056169E0,5.8280706E0,-7.600489E-1,-2.7377572E-2,5.2029595E-2,8.0693203E-1,1.8281939E0,3.087661E0,4.616111E0,6.936747E0,-5.65429E-1,-8.8518256E-1,2.1811998E-1,-1.867671E-1,-6.4070575E-2,2.0230888E-1,6.059092E-1,1.0724965E0,1.5500673E0,2.0947206E0,2.7193751E0,3.4541245E0,4.1921215E0,4.840033E0,6.4570284E0,7.919539E0,-6.9887733E-1,-4.5290124E-1,-9.048651E-1,-3.4676617E-1,9.19274E-1,1.0389428E-1,-3.145516E-1,1.3016309E-1,8.237501E-2,-1.7601241E-1,1.7520845E-1,8.7609386E-1,4.9342304E-1,7.710994E-1,1.0519626E0,1.8317605E0,1.4575039E0,1.6685892E0,1.9311466E0,2.2602775E0,2.86427E0,2.5294566E0,3.19549E0,3.712517E0,3.7054856E0,4.3706346E0,4.40952E0,5.1235027E0,6.0672526E0,6.887667E0,6.64516E0,8.142164E0,-3.880012E-2,-2.5089437E-2,-2.4071528E-2,1.1869015E-3,-5.1644493E-2,-4.34609E-2,-1.3320549E-2,-2.2412322E-2,-6.2932886E-2,5.3245742E-2,1.6889883E-2,-1.1073603E-2,-2.4080928E-2,-2.0246657E-3,1.5354469E-2,-4.075372E-2,1.7440107E-3,1.3897342E-2,2.4273518E-2,-1.0127712E-2,1.8612841E-2,3.9784336E-3,7.201933E-2,-2.0894548E-2,2.3202343E-2,7.863018E-2,3.0665273E-2,4.1830923E-2,4.7463175E-2,5.718249E-2,5.5488605E-2,1.313157E-1,7.372268E-2,3.889894E-2,8.2611956E-2,1.5142255E-1,9.906348E-2,8.513688E-2,1.11212365E-1,1.6404769E-1,1.4653777E-1,9.427917E-2,7.6435916E-2,1.2838511E-1,1.5616913E-1,2.4423233E-1,1.6593997E-1,1.9430757E-1,1.912363E-1,9.939105E-2,2.2025552E-1,3.443983E-2,2.2196196E-1,-3.338638E-2,2.3220976E-1,2.8231585E-1,3.0520576E-1,2.4157892E-1,3.479377E-1,2.415847E-1,-4.81293E-2,3.4297237E-1,4.1763702E-1,3.2545158E-1],"categories":[],"categories_nodes":[],"categories_segments":[],"categories_sizes":[],"default_left":[0,0,0,0,0,0,0,0,0,0,0,0,0,0,0,0,0,0,0,0,0,0,0,0,0,0,0,0,0,0,0,0,0,0,0,0,0,0,0,0,0,0,0,0,0,0,0,0,0,0,0,0,0,0,0,0,0,0,0,0,0,0,0,0,0,0,0,0,0,0,0,0,0,0,0,0,0,0,0,0,0,0,0,0,0,0,0,0,0,0,0,0,0,0,0,0,0,0,0,0,0,0,0,0,0,0,0,0,0,0,0,0,0,0,0,0,0,0,0,0,0,0,0,0,0,0,0],"id":11,"left_children":[1,3,5,7,9,11,13,15,17,19,21,23,25,27,29,31,33,35,37,39,41,43,45,47,49,51,53,55,57,59,61,63,65,67,69,71,73,75,77,79,81,83,85,87,89,91,93,95,97,99,101,103,105,107,109,111,113,115,117,119,121,123,125,-1,-1,-1,-1,-1,-1,-1,-1,-1,-1,-1,-1,-1,-1,-1,-1,-1,-1,-1,-1,-1,-1,-1,-1,-1,-1,-1,-1,-1,-1,-1,-1,-1,-1,-1,-1,-1,-1,-1,-1,-1,-1,-1,-1,-1,-1,-1,-1,-1,-1,-1,-1,-1,-1,-1,-1,-1,-1,-1,-1,-1,-1,-1,-1],"loss_changes":[2.0793273E5,4.443371E4,4.158417E4,2.171957E3,7.4107236E3,5.7154375E3,5.733672E3,2.5765352E3,1.6469868E2,5.158468E2,1.2387256E3,7.0223047E2,7.7433984E2,1.74625E2,1.00446875E3,6.21583E2,6.8221094E2,1.326133E2,1.0339378E2,2.7345624E2,2.3514313E2,2.4519482E2,1.5399414E2,4.870215E1,1.27166016E2,7.2583984E1,1.8241016E2,4.6091797E1,1.4057031E2,2.1166406E2,1.530039E2,2.8756836E2,3.0557666E2,2.8266016E2,1.841568E1,7.492978E1,1.0859954E2,8.326538E1,1.2300252E2,6.711934E1,1.6608185E2,2.3344928E2,3.6423468E2,2.4860828E2,5.481836E1,9.062695E1,1.4738385E2,2.9087402E1,4.028662E1,2.4675781E1,8.1256836E1,1.01055664E2,4.4453613E1,1.6257227E2,8.609375E1,3.3155273E1,6.2842773E1,8.414258E1,1.7424805E2,6.9921875E0,7.014453E1,1.924497E2,1.578164E2,0E0,0E0,0E0,0E0,0E0,0E0,0E0,0E0,0E0,0E0,0E0,0E0,0E0,0E0,0E0,0E0,0E0,0E0,0E0,0E0,0E0,0E0,0E0,0E0,0E0,0E0,0E0,0E0,0E0,0E0,0E0,0E0,0E0,0E0,0E0,0E0,0E0,0E0,0E0,0E0,0E0,0E0,0E0,0E0,0E0,0E0,0E0,0E0,0E0,0E0,0E0,0E0,0E0,0E0,0E0,0E0,0E0,0E0,0E0,0E0,0E0,0E0,0E0,0E0],"parents":[2147483647,0,0,1,1,2,2,3,3,4,4,5,5,6,6,7,7,8,8,9,9,10,10,11,11,12,12,13,13,14,14,15,15,16,16,17,17,18,18,19,19,20,20,21,21,22,22,23,23,24,24,25,25,26,26,27,27,28,28,29,29,30,30,31,31,32,32,33,33,34,34,35,35,36,36,37,37,38,38,39,39,40,40,41,41,42,42,43,43,44,44,45,45,46,46,47,47,48,48,49,49,50,50,51,51,52,52,53,53,54,54,55,55,56,56,57,57,58,58,59,59,60,60,61,61,62,62],"right_children":[2,4,6,8,10,12,14,16,18,20,22,24,26,28,30,32,34,36,38,40,42,44,46,48,50,52,54,56,58,60,62,64,66,68,70,72,74,76,78,80,82,84,86,88,90,92,94,96,98,100,102,104,106,108,110,112,114,116,118,120,122,124,126,-1,-1,-1,-1,-1,-1,-1,-1,-1,-1,-1,-1,-1,-1,-1,-1,-1,-1,-1,-1,-1,-1,-1,-1,-1,-1,-1,-1,-1,-1,-1,-1,-1,-1,-1,-1,-1,-1,-1,-1,-1,-1,-1,-1,-1,-1,-1,-1,-1,-1,-1,-1,-1,-1,-1,-1,-1,-1,-1,-1,-1,-1,-1,-1],"split_conditions":[4.2E0,1.3E0,9.2E0,3E0,2.4E0,6.1E0,1.2E1,3E0,1E0,1.9E0,3.3E0,5E0,7.4E0,1E1,1.66E1,2.82E2,1.1E0,2.02E2,2E0,3E0,4E0,1.73E2,4E0,4.6E0,5.5E0,4.01E2,8.1E0,2E0,1E0,1.4E1,3E0,7.45E2,1.1E0,2E-1,4.7E2,4E0,1.54E2,6E-1,3E0,9.19E2,4.6E1,2E0,2.1E0,4E0,2.55E0,3.8E0,4E0,4.06E2,3E0,3.5E2,4E0,3.66E2,5.9E1,4E0,2E0,3E0,1.201E3,1.239E3,1.09E1,4.06E2,4.06E2,4.6E1,3.96E2,-3.880012E-2,-2.5089437E-2,-2.4071528E-2,1.1869015E-3,-5.1644493E-2,-4.34609E-2,-1.3320549E-2,-2.2412322E-2,-6.2932886E-2,5.3245742E-2,1.6889883E-2,-1.1073603E-2,-2.4080928E-2,-2.0246657E-3,1.5354469E-2,-4.075372E-2,1.7440107E-3,1.3897342E-2,2.4273518E-2,-1.0127712E-2,1.8612841E-2,3.9784336E-3,7.201933E-2,-2.0894548E-2,2.3202343E-2,7.863018E-2,3.0665273E-2,4.1830923E-2,4.7463175E-2,5.718249E-2,5.5488605E-2,1.313157E-1,7.372268E-2,3.889894E-2,8.2611956E-2,1.5142255E-1,9.906348E-2,8.513688E-2,1.11212365E-1,1.6404769E-1,1.4653777E-1,9.427917E-2,7.6435916E-2,1.2838511E-1,1.5616913E-1,2.4423233E-1,1.6593997E-1,1.9430757E-1,1.912363E-1,9.939105E-2,2.2025552E-1,3.443983E-2,2.2196196E-1,-3.338638E-2,2.3220976E-1,2.8231585E-1,3.0520576E-1,2.4157892E-1,3.479377E-1,2.415847E-1,-4.81293E-2,3.4297237E-1,4.1763702E-1,3.2545158E-1],"split_indices":[5,5,5,4,5,5,5,6,2,5,5,5,5,5,5,0,5,0,2,6,4,0,4,5,5,1,5,6,2,5,7,1,5,5,1,4,1,5,2,1,0,6,5,4,5,5,5,0,2,0,4,0,0,4,6,2,1,1,5,0,0,0,0,0,0,0,0,0,0,0,0,0,0,0,0,0,0,0,0,0,0,0,0,0,0,0,0,0,0,0,0,0,0,0,0,0,0,0,0,0,0,0,0,0,0,0,0,0,0,0,0,0,0,0,0,0,0,0,0,0,0,0,0,0,0,0,0],"split_type":[0,0,0,0,0,0,0,0,0,0,0,0,0,0,0,0,0,0,0,0,0,0,0,0,0,0,0,0,0,0,0,0,0,0,0,0,0,0,0,0,0,0,0,0,0,0,0,0,0,0,0,0,0,0,0,0,0,0,0,0,0,0,0,0,0,0,0,0,0,0,0,0,0,0,0,0,0,0,0,0,0,0,0,0,0,0,0,0,0,0,0,0,0,0,0,0,0,0,0,0,0,0,0,0,0,0,0,0,0,0,0,0,0,0,0,0,0,0,0,0,0,0,0,0,0,0,0],"sum_hessian":[1.82415E5,1.62803E5,1.9612E4,1.10024E5,5.2779E4,1.5322E4,4.29E3,1.05817E5,4.207E3,2.9564E4,2.3215E4,9.516E3,5.806E3,2.052E3,2.238E3,4.1413E4,6.4404E4,1.656E3,2.551E3,1.6679E4,1.2885E4,1.3215E4,1E4,4.66E3,4.856E3,2.9E3,2.906E3,7.16E2,1.336E3,1.509E3,7.29E2,1.8943E4,2.247E4,6.2132E4,2.272E3,2.31E2,1.425E3,1.818E3,7.33E2,7.226E3,9.453E3,1.2388E4,4.97E2,7.864E3,5.351E3,9.739E3,2.61E2,2.624E3,2.036E3,2.449E3,2.407E3,1.637E3,1.263E3,1.459E3,1.447E3,1.98E2,5.18E2,5.37E2,7.99E2,8E2,7.09E2,1.13E2,6.16E2,1.3613E4,5.33E3,2.1201E4,1.269E3,1.3526E4,4.8606E4,1.27E3,1.002E3,1.4E1,2.17E2,8.29E2,5.96E2,1.129E3,6.89E2,6.18E2,1.15E2,5.815E3,1.411E3,3.64E2,9.089E3,4.047E3,8.341E3,3.46E2,1.51E2,7.657E3,2.07E2,1.573E3,3.778E3,4.599E3,5.14E3,1.38E2,1.23E2,2.559E3,6.5E1,2.014E3,2.2E1,2.002E3,4.47E2,2.328E3,7.9E1,1.531E3,1.06E2,4.8E1,1.215E3,1.402E3,5.7E1,4.49E2,9.98E2,1.84E2,1.4E1,5.13E2,5E0,5.34E2,3E0,4.22E2,3.77E2,7.73E2,2.7E1,6.83E2,2.6E1,3E0,1.1E2,5.42E2,7.4E1],"tree_param":{"num_deleted":"0","num_feature":"8","num_nodes":"127","size_leaf_vector":"1"}},{"base_weights":[3.8109158E-4,-3.4389126E-1,2.989325E0,-6.95435E-1,3.7837762E-1,2.237689E0,5.537465E0,-7.183128E-1,8.354925E-2,1.2268306E-1,9.003314E-1,1.7753986E0,2.9334857E0,4.3859134E0,6.590881E0,-5.1686674E-1,-8.2157E-1,-6.98482E-1,1.3246408E-1,-6.0865294E-2,2.8158808E-1,7.372968E-1,1.1015068E0,1.598727E0,2.107762E0,2.58356E0,3.28168E0,3.983276E0,4.5985575E0,6.1349297E0,7.5249844E0,-5.410461E-1,-9.0679556E-2,-8.4030366E-1,-3.2428458E-1,2.1992552E-1,-7.50088E-1,1.7400476E-1,-9.752316E-1,-1.6141102E-1,9.60355E-2,1.7103033E-1,4.4303986E-1,7.150007E-1,1.3274778E0,1.0800538E0,1.8723656E0,1.5068259E0,1.7935815E0,3.8315907E0,2.096196E0,2.479352E0,2.8275843E0,3.3550463E0,2.3965037E0,3.5216715E0,4.1525936E0,4.6993256E0,3.4654617E0,5.7645726E0,6.5441146E0,7.0173464E0,8.0835E0,-2.4359582E-2,-3.7432183E-2,1.4905288E-2,-1.0821236E-2,-4.8488744E-2,-4.0295955E-2,6.8746716E-2,-1.6506702E-2,4.2067014E-2,-4.5333028E-2,4.0859585E-3,3.2853164E-2,7.6056525E-2,-5.3093415E-2,9.000771E-3,-9.950535E-3,4.0365956E-3,4.7350615E-2,6.678681E-2,7.4192667E-3,1.3000059E-2,2.9531358E-2,3.064315E-2,4.0961523E-2,2.183852E-2,7.541923E-2,5.1583167E-2,6.478127E-2,1.0694522E-1,5.832941E-3,7.0988715E-2,7.926373E-2,8.806319E-2,1.3350053E-1,3.386666E-1,1.6459322E-1,1.0598107E-1,7.0332274E-2,1.2511694E-1,5.6479853E-2,1.19436085E-1,1.4971608E-1,1.6089639E-1,1.872737E-1,1.4211352E-1,9.325242E-2,8.17935E-2,1.8116547E-1,2.0926416E-1,3.300483E-2,2.4472986E-1,2.1092074E-1,6.521753E-2,1.8914673E-1,2.6730427E-1,2.942979E-1,3.324432E-1,2.6010272E-1,3.205401E-1,4.206016E-1,4.4384703E-1,3.4111166E-1],"categories":[],"categories_nodes":[],"categories_segments":[],"categories_sizes":[],"default_left":[0,0,0,0,0,0,0,0,0,0,0,0,0,0,0,0,0,0,0,0,0,0,0,0,0,0,0,0,0,0,0,0,0,0,0,0,0,0,0,0,0,0,0,0,0,0,0,0,0,0,0,0,0,0,0,0,0,0,0,0,0,0,0,0,0,0,0,0,0,0,0,0,0,0,0,0,0,0,0,0,0,0,0,0,0,0,0,0,0,0,0,0,0,0,0,0,0,0,0,0,0,0,0,0,0,0,0,0,0,0,0,0,0,0,0,0,0,0,0,0,0,0,0,0,0],"id":12,"left_children":[1,3,5,7,9,11,13,15,17,19,21,23,25,27,29,31,33,35,37,39,41,43,45,47,49,51,53,55,57,59,61,63,65,67,69,-1,71,73,75,77,79,81,83,85,87,89,91,93,95,97,99,101,103,105,107,109,111,113,115,117,119,121,123,-1,-1,-1,-1,-1,-1,-1,-1,-1,-1,-1,-1,-1,-1,-1,-1,-1,-1,-1,-1,-1,-1,-1,-1,-1,-1,-1,-1,-1,-1,-1,-1,-1,-1,-1,-1,-1,-1,-1,-1,-1,-1,-1,-1,-1,-1,-1,-1,-1,-1,-1,-1,-1,-1,-1,-1,-1,-1,-1,-1,-1,-1],"loss_changes":[1.8770905E5,4.1533695E4,3.6073297E4,1.9608633E3,7.1469785E3,4.6752656E3,5.1763438E3,2.2228867E3,1.20206696E2,1.0484161E3,5.767041E2,5.101289E2,6.990586E2,1.5745312E2,9.074375E2,3.7323633E2,6.5801953E2,5.1960815E1,1.3618839E2,2.631543E2,3.438175E2,1.27072754E2,1.2829199E2,9.962012E1,5.2418945E1,6.6759766E1,1.807461E2,4.141504E1,1.3637305E2,1.9110938E2,1.502461E2,3.8287695E2,9.520032E1,3.02375E2,2.5968506E1,0E0,4.6610832E1,1.2699743E2,2.4756828E1,1.3054208E2,8.476847E1,3.0144995E2,2.1136731E2,9.932373E1,5.62218E1,7.866211E1,9.895886E1,2.4307617E1,4.701758E1,7.870056E0,4.57041E1,6.0499023E1,5.5851074E1,1.3152734E2,4.8239624E1,3.22146E1,5.6490234E1,9.4390625E1,7.259424E1,9.222656E0,6.522266E1,2.7599023E2,2.8069336E2,0E0,0E0,0E0,0E0,0E0,0E0,0E0,0E0,0E0,0E0,0E0,0E0,0E0,0E0,0E0,0E0,0E0,0E0,0E0,0E0,0E0,0E0,0E0,0E0,0E0,0E0,0E0,0E0,0E0,0E0,0E0,0E0,0E0,0E0,0E0,0E0,0E0,0E0,0E0,0E0,0E0,0E0,0E0,0E0,0E0,0E0,0E0,0E0,0E0,0E0,0E0,0E0,0E0,0E0,0E0,0E0,0E0,0E0,0E0,0E0,0E0,0E0],"parents":[2147483647,0,0,1,1,2,2,3,3,4,4,5,5,6,6,7,7,8,8,9,9,10,10,11,11,12,12,13,13,14,14,15,15,16,16,17,17,18,18,19,19,20,20,21,21,22,22,23,23,24,24,25,25,26,26,27,27,28,28,29,29,30,30,31,31,32,32,33,33,34,34,36,36,37,37,38,38,39,39,40,40,41,41,42,42,43,43,44,44,45,45,46,46,47,47,48,48,49,49,50,50,51,51,52,52,53,53,54,54,55,55,56,56,57,57,58,58,59,59,60,60,61,61,62,62],"right_children":[2,4,6,8,10,12,14,16,18,20,22,24,26,28,30,32,34,36,38,40,42,44,46,48,50,52,54,56,58,60,62,64,66,68,70,-1,72,74,76,78,80,82,84,86,88,90,92,94,96,98,100,102,104,106,108,110,112,114,116,118,120,122,124,-1,-1,-1,-1,-1,-1,-1,-1,-1,-1,-1,-1,-1,-1,-1,-1,-1,-1,-1,-1,-1,-1,-1,-1,-1,-1,-1,-1,-1,-1,-1,-1,-1,-1,-1,-1,-1,-1,-1,-1,-1,-1,-1,-1,-1,-1,-1,-1,-1,-1,-1,-1,-1,-1,-1,-1,-1,-1,-1,-1,-1,-1],"split_conditions":[4.3E0,1.3E0,9.2E0,4E0,2.8E0,6.1E0,1.2E1,2E0,2E-1,1.9E0,3.6E0,5.3E0,7.4E0,1E1,1.66E1,1.1E0,1.1E0,1E-1,3E0,1.86E2,2.07E2,4E0,4E0,5E0,2.7E1,7E0,3.87E2,2E0,3.99E2,1.4E1,2.89E2,1E0,1.2E0,2E-1,2.7E1,2.1992552E-1,5.9E1,2E0,2E0,4.6E1,9E0,2.7E1,2.1E0,3.1E0,3E0,4.1E0,4.1E0,4.6E0,4E0,3E0,4.06E2,3E0,2E0,8.6E0,3E0,7.3E1,1.201E3,6.79E2,3E0,2E0,3.99E2,7.62E2,3.4E2,-2.4359582E-2,-3.7432183E-2,1.4905288E-2,-1.0821236E-2,-4.8488744E-2,-4.0295955E-2,6.8746716E-2,-1.6506702E-2,4.2067014E-2,-4.5333028E-2,4.0859585E-3,3.2853164E-2,7.6056525E-2,-5.3093415E-2,9.000771E-3,-9.950535E-3,4.0365956E-3,4.7350615E-2,6.678681E-2,7.4192667E-3,1.3000059E-2,2.9531358E-2,3.064315E-2,4.0961523E-2,2.183852E-2,7.541923E-2,5.1583167E-2,6.478127E-2,1.0694522E-1,5.832941E-3,7.0988715E-2,7.926373E-2,8.806319E-2,1.3350053E-1,3.386666E-1,1.6459322E-1,1.0598107E-1,7.0332274E-2,1.2511694E-1,5.6479853E-2,1.19436085E-1,1.4971608E-1,1.6089639E-1,1.872737E-1,1.4211352E-1,9.325242E-2,8.17935E-2,1.8116547E-1,2.0926416E-1,3.300483E-2,2.4472986E-1,2.1092074E-1,6.521753E-2,1.8914673E-1,2.6730427E-1,2.942979E-1,3.324432E-1,2.6010272E-1,3.205401E-1,4.206016E-1,4.4384703E-1,3.4111166E-1],"split_indices":[5,5,5,4,5,5,5,6,5,5,5,5,5,5,5,5,5,5,2,0,0,4,4,5,0,5,0,6,0,5,0,5,5,5,0,0,0,2,6,0,4,0,5,5,5,5,5,5,4,7,0,2,6,5,6,0,1,1,7,6,0,1,0,0,0,0,0,0,0,0,0,0,0,0,0,0,0,0,0,0,0,0,0,0,0,0,0,0,0,0,0,0,0,0,0,0,0,0,0,0,0,0,0,0,0,0,0,0,0,0,0,0,0,0,0,0,0,0,0,0,0,0,0,0,0],"split_type":[0,0,0,0,0,0,0,0,0,0,0,0,0,0,0,0,0,0,0,0,0,0,0,0,0,0,0,0,0,0,0,0,0,0,0,0,0,0,0,0,0,0,0,0,0,0,0,0,0,0,0,0,0,0,0,0,0,0,0,0,0,0,0,0,0,0,0,0,0,0,0,0,0,0,0,0,0,0,0,0,0,0,0,0,0,0,0,0,0,0,0,0,0,0,0,0,0,0,0,0,0,0,0,0,0,0,0,0,0,0,0,0,0,0,0,0,0,0,0,0,0,0,0,0,0],"sum_hessian":[1.82415E5,1.63575E5,1.884E4,1.10024E5,5.3551E4,1.455E4,4.29E3,1.06885E5,3.139E3,3.5944E4,1.7607E4,8.744E3,5.806E3,2.052E3,2.238E3,3.6223E4,7.0662E4,1.84E2,2.955E3,1.6679E4,1.9265E4,9.728E3,7.879E3,5.713E3,3.031E3,2.9E3,2.906E3,7.16E2,1.336E3,1.509E3,7.29E2,3.4278E4,1.945E3,6.8096E4,2.566E3,1E0,1.83E2,2.849E3,1.06E2,1.0165E4,6.514E3,1.1436E4,7.829E3,9.376E3,3.52E2,7.668E3,2.11E2,3.888E3,1.825E3,1.8E1,3.013E3,2.04E3,8.6E2,2.681E3,2.25E2,1.98E2,5.18E2,1.224E3,1.12E2,8E2,7.09E2,3.89E2,3.4E2,2.722E4,7.058E3,4.75E2,1.47E3,1.4284E4,5.3812E4,8E0,2.558E3,1.6E1,1.67E2,2.393E3,4.56E2,3E0,1.03E2,1.008E3,9.157E3,6.4E3,1.14E2,2.17E2,1.1219E4,3.496E3,4.333E3,4.739E3,4.637E3,6E1,2.92E2,6.267E3,1.401E3,1.83E2,2.8E1,1.852E3,2.036E3,1.763E3,6.2E1,1E0,1.7E1,2.912E3,1.01E2,2.005E3,3.5E1,2.41E2,6.19E2,1.991E3,6.9E2,1.2E2,1.05E2,1.1E1,1.87E2,5.13E2,5E0,8.64E2,3.6E2,1.5E1,9.7E1,1.9E2,6.1E2,6.54E2,5.5E1,2.75E2,1.14E2,2.05E2,1.35E2],"tree_param":{"num_deleted":"0","num_feature":"8","num_nodes":"125","size_leaf_vector":"1"}},{"base_weights":[3.989247E-4,-3.2669213E-1,2.8401763E0,-6.606616E-1,3.594693E-1,2.125948E0,5.2614994E0,-6.8619424E-1,-1.970546E-2,4.5475513E-2,7.464489E-1,1.6867489E0,2.7869897E0,4.1672096E0,6.262534E0,-5.094756E-1,-7.9982764E-1,3.018682E-1,-1.2672105E-1,-5.6204494E-2,1.9348203E-1,5.498137E-1,9.876058E-1,1.5188557E0,2.002598E0,2.4545374E0,3.117797E0,3.7848165E0,4.36916E0,5.8289475E0,7.1508255E0,-6.3453794E-1,-4.040154E-1,-8.176201E-1,-3.1316924E-1,8.002765E-2,8.2609177E-1,-7.155997E-2,-6.530871E-1,-2.117503E-1,7.402617E-2,1.7648354E-1,1.0392903E0,4.4725576E-1,7.004244E-1,8.561061E-1,1.0895808E0,1.4315233E0,1.7040237E0,3.6664987E0,1.9914446E0,2.591987E0,2.274477E0,3.187424E0,2.27772E0,3.823834E0,2.1501856E0,3.96615E0,4.6347237E0,5.477045E0,6.2177434E0,7.5911016E0,6.505317E0,-3.634181E-2,-2.422471E-2,-2.1490071E-2,1.3383362E-3,-4.6638202E-2,-3.9277744E-2,-1.1847129E-2,-2.0472564E-2,5.9889746E-4,1.3326429E-1,5.635939E-2,-2.1812947E-2,-1.2254958E-2,7.563164E-3,2.3600002E-1,-3.524935E-2,1.6700273E-2,-1.2326796E-2,4.4459354E-2,2.7120418E-3,6.1019603E-3,2.2418337E-2,-1.7650826E-2,6.252629E-2,2.099326E-2,7.2677664E-2,3.2909732E-2,4.62286E-2,9.707343E-2,4.2272758E-2,5.3056683E-2,1.0469603E-1,6.7441195E-2,7.530249E-2,8.366252E-2,1.2693144E-1,3.3019993E-1,1.5682076E-1,9.8389775E-2,1.3486905E-1,1.3145326E-1,5.0217908E-2,6.736195E-2,1.1549852E-1,1.6927256E-1,1.4611422E-1,9.227277E-2,1.4068002E-1,2.0190513E-1,1.7529407E-1,1.5231393E-1,6.1077356E-2,1.9971687E-1,-3.9771747E-2,2.0899415E-1,2.565725E-1,2.7807733E-1,2.4677515E-1,3.1412178E-1,2.1742938E-1,3.8426962E-1,8.4008336E-2,-9.685897E-2,3.5704416E-1],"categories":[],"categories_nodes":[],"categories_segments":[],"categories_sizes":[],"default_left":[0,0,0,0,0,0,0,0,0,0,0,0,0,0,0,0,0,0,0,0,0,0,0,0,0,0,0,0,0,0,0,0,0,0,0,0,0,0,0,0,0,0,0,0,0,0,0,0,0,0,0,0,0,0,0,0,0,0,0,0,0,0,0,0,0,0,0,0,0,0,0,0,0,0,0,0,0,0,0,0,0,0,0,0,0,0,0,0,0,0,0,0,0,0,0,0,0,0,0,0,0,0,0,0,0,0,0,0,0,0,0,0,0,0,0,0,0,0,0,0,0,0,0,0,0,0,0],"id":13,"left_children":[1,3,5,7,9,11,13,15,17,19,21,23,25,27,29,31,33,35,37,39,41,43,45,47,49,51,53,55,57,59,61,63,65,67,69,71,73,75,77,79,81,83,85,87,89,91,93,95,97,99,101,103,105,107,109,111,113,115,117,119,121,123,125,-1,-1,-1,-1,-1,-1,-1,-1,-1,-1,-1,-1,-1,-1,-1,-1,-1,-1,-1,-1,-1,-1,-1,-1,-1,-1,-1,-1,-1,-1,-1,-1,-1,-1,-1,-1,-1,-1,-1,-1,-1,-1,-1,-1,-1,-1,-1,-1,-1,-1,-1,-1,-1,-1,-1,-1,-1,-1,-1,-1,-1,-1,-1,-1],"loss_changes":[1.694409E5,3.7484816E4,3.2572016E4,1.8005781E3,6.507024E3,4.219875E3,4.6743594E3,2.124379E3,1.4512514E2,4.449435E2,1.1369678E3,4.606953E2,6.309883E2,1.420039E2,8.206719E2,5.4594434E2,5.573594E2,1.2239154E2,9.181976E1,3.5503693E2,1.7292111E2,2.038252E2,1.4353027E2,8.996289E1,4.8966797E1,6.590234E1,1.6277734E2,3.7507812E1,1.2471094E2,1.7253906E2,1.5808203E2,2.6199854E2,2.4961157E2,2.2864062E2,1.6585129E1,1.3032928E2,1.1945952E2,1.1082251E2,8.698637E1,1.5171115E2,1.538151E2,1.7467395E2,7.014424E1,2.1617322E2,5.0052002E1,5.2806885E1,1.7103027E2,2.19375E1,4.265088E1,8.8723755E0,4.5010742E1,9.37832E1,3.8487305E1,1.3092383E2,4.7158813E1,3.3463867E1,1.2089615E1,7.538574E1,1.5929492E2,9.207031E0,5.8535156E1,2.2563281E2,1.6396592E3,0E0,0E0,0E0,0E0,0E0,0E0,0E0,0E0,0E0,0E0,0E0,0E0,0E0,0E0,0E0,0E0,0E0,0E0,0E0,0E0,0E0,0E0,0E0,0E0,0E0,0E0,0E0,0E0,0E0,0E0,0E0,0E0,0E0,0E0,0E0,0E0,0E0,0E0,0E0,0E0,0E0,0E0,0E0,0E0,0E0,0E0,0E0,0E0,0E0,0E0,0E0,0E0,0E0,0E0,0E0,0E0,0E0,0E0,0E0,0E0,0E0,0E0,0E0,0E0],"parents":[2147483647,0,0,1,1,2,2,3,3,4,4,5,5,6,6,7,7,8,8,9,9,10,10,11,11,12,12,13,13,14,14,15,15,16,16,17,17,18,18,19,19,20,20,21,21,22,22,23,23,24,24,25,25,26,26,27,27,28,28,29,29,30,30,31,31,32,32,33,33,34,34,35,35,36,36,37,37,38,38,39,39,40,40,41,41,42,42,43,43,44,44,45,45,46,46,47,47,48,48,49,49,50,50,51,51,52,52,53,53,54,54,55,55,56,56,57,57,58,58,59,59,60,60,61,61,62,62],"right_children":[2,4,6,8,10,12,14,16,18,20,22,24,26,28,30,32,34,36,38,40,42,44,46,48,50,52,54,56,58,60,62,64,66,68,70,72,74,76,78,80,82,84,86,88,90,92,94,96,98,100,102,104,106,108,110,112,114,116,118,120,122,124,126,-1,-1,-1,-1,-1,-1,-1,-1,-1,-1,-1,-1,-1,-1,-1,-1,-1,-1,-1,-1,-1,-1,-1,-1,-1,-1,-1,-1,-1,-1,-1,-1,-1,-1,-1,-1,-1,-1,-1,-1,-1,-1,-1,-1,-1,-1,-1,-1,-1,-1,-1,-1,-1,-1,-1,-1,-1,-1,-1,-1,-1,-1,-1,-1],"split_conditions":[4.3E0,1.3E0,9.2E0,2E0,2.4E0,6.1E0,1.2E1,3E0,1.54E2,1.86E2,3.3E0,5.3E0,7.4E0,1E1,1.66E1,2.82E2,1.1E0,1.36E2,1.061E3,1.8E0,6E0,1.73E2,3.8E0,5E0,2.7E1,4.01E2,3.87E2,3E0,1E0,1.4E1,5.73E2,6.58E2,1.1E0,2E-1,4.7E2,1.2E0,1.1E1,4.43E2,1.7E1,4.9E1,2.7E1,2.1E0,1.5E0,4E0,9.8E2,3.6E1,4E0,4.6E0,4E0,3E0,4E0,4.06E2,5.9E1,4.48E2,8.1E0,4.48E2,5E0,1.239E3,1.09E1,3.61E2,4.06E2,4.06E2,6.27E2,-3.634181E-2,-2.422471E-2,-2.1490071E-2,1.3383362E-3,-4.6638202E-2,-3.9277744E-2,-1.1847129E-2,-2.0472564E-2,5.9889746E-4,1.3326429E-1,5.635939E-2,-2.1812947E-2,-1.2254958E-2,7.563164E-3,2.3600002E-1,-3.524935E-2,1.6700273E-2,-1.2326796E-2,4.4459354E-2,2.7120418E-3,6.1019603E-3,2.2418337E-2,-1.7650826E-2,6.252629E-2,2.099326E-2,7.2677664E-2,3.2909732E-2,4.62286E-2,9.707343E-2,4.2272758E-2,5.3056683E-2,1.0469603E-1,6.7441195E-2,7.530249E-2,8.366252E-2,1.2693144E-1,3.3019993E-1,1.5682076E-1,9.8389775E-2,1.3486905E-1,1.3145326E-1,5.0217908E-2,6.736195E-2,1.1549852E-1,1.6927256E-1,1.4611422E-1,9.227277E-2,1.4068002E-1,2.0190513E-1,1.7529407E-1,1.5231393E-1,6.1077356E-2,1.9971687E-1,-3.9771747E-2,2.0899415E-1,2.565725E-1,2.7807733E-1,2.4677515E-1,3.1412178E-1,2.1742938E-1,3.8426962E-1,8.4008336E-2,-9.685897E-2,3.5704416E-1],"split_indices":[5,5,5,4,5,5,5,6,1,0,5,5,5,5,5,0,5,1,1,5,4,0,5,5,0,1,0,2,2,5,1,1,5,5,1,5,7,1,0,0,0,5,5,4,1,0,4,5,4,7,4,0,0,1,5,1,7,1,5,0,0,0,1,0,0,0,0,0,0,0,0,0,0,0,0,0,0,0,0,0,0,0,0,0,0,0,0,0,0,0,0,0,0,0,0,0,0,0,0,0,0,0,0,0,0,0,0,0,0,0,0,0,0,0,0,0,0,0,0,0,0,0,0,0,0,0,0],"split_type":[0,0,0,0,0,0,0,0,0,0,0,0,0,0,0,0,0,0,0,0,0,0,0,0,0,0,0,0,0,0,0,0,0,0,0,0,0,0,0,0,0,0,0,0,0,0,0,0,0,0,0,0,0,0,0,0,0,0,0,0,0,0,0,0,0,0,0,0,0,0,0,0,0,0,0,0,0,0,0,0,0,0,0,0,0,0,0,0,0,0,0,0,0,0,0,0,0,0,0,0,0,0,0,0,0,0,0,0,0,0,0,0,0,0,0,0,0,0,0,0,0,0,0,0,0,0,0],"sum_hessian":[1.82415E5,1.63575E5,1.884E4,1.10024E5,5.3551E4,1.455E4,4.29E3,1.05809E5,4.215E3,2.9564E4,2.3987E4,8.744E3,5.806E3,2.052E3,2.238E3,4.1412E4,6.4397E4,1.052E3,3.163E3,1.7525E4,1.2039E4,1.3215E4,1.0772E4,5.713E3,3.031E3,2.9E3,2.906E3,7.16E2,1.336E3,1.509E3,7.29E2,1.8943E4,2.2469E4,6.2125E4,2.272E3,7.4E2,3.12E2,2.864E3,2.99E2,7.986E3,9.539E3,1.1803E4,2.36E2,7.864E3,5.351E3,4.709E3,6.063E3,3.888E3,1.825E3,1.8E1,3.013E3,1.637E3,1.263E3,2.681E3,2.25E2,6.98E2,1.8E1,5.37E2,7.99E2,8E2,7.09E2,4.27E2,3.02E2,1.1726E4,7.217E3,2.12E4,1.269E3,1.3526E4,4.8599E4,1.27E3,1.002E3,7.22E2,1.8E1,2.52E2,6E1,1.61E3,1.254E3,2E0,2.97E2,4.78E2,7.508E3,2.25E2,9.314E3,9.835E3,1.968E3,3.1E1,2.05E2,7.657E3,2.07E2,4.506E3,8.45E2,4.4E1,4.665E3,5.898E3,1.65E2,1.852E3,2.036E3,1.763E3,6.2E1,1E0,1.7E1,2.919E3,9.4E1,1.599E3,3.8E1,4.8E1,1.215E3,1.528E3,1.153E3,1.27E2,9.8E1,4.1E2,2.88E2,8E0,1E1,5.34E2,3E0,4.22E2,3.77E2,6.84E2,1.16E2,6.83E2,2.6E1,4.2E2,7E0,2.1E1,2.81E2],"tree_param":{"num_deleted":"0","num_feature":"8","num_nodes":"127","size_leaf_vector":"1"}},{"base_weights":[4.1051456E-4,-3.174328E-1,2.6387708E0,-6.2762696E-1,3.2920286E-1,1.9776136E0,4.999124E0,-6.518864E-1,-1.8633714E-2,4.3206017E-2,6.933986E-1,1.568479E0,2.6477973E0,3.9594412E0,5.9502044E0,-4.8400375E-1,-7.5983804E-1,2.8693476E-1,-1.2032302E-1,-5.3391293E-2,1.838141E-1,5.223361E-1,9.193828E-1,1.3306222E0,1.7964143E0,2.4643786E0,3.1982524E0,3.5963995E0,4.1511703E0,5.5382E0,6.794282E0,-5.4241216E-1,-2.7001747E-1,-7.7674043E-1,-2.97525E-1,7.620691E-2,7.848977E-1,-4.0328458E-1,-2.5354771E-2,-2.0116219E-1,7.032984E-2,1.6766186E-1,9.8751515E-1,4.257118E-1,6.6661793E-1,9.018043E-1,1.5693643E0,1.2523896E0,1.4307841E0,1.7053666E0,2.0411236E0,2.232522E0,2.66729E0,3.2336648E0,1.416642E0,3.1611414E0,3.756361E0,4.245098E0,3.0961866E0,5.2038484E0,5.9076047E0,6.8275213E0,6.0907096E-1,-2.2768458E-2,-3.294248E-2,-5.908541E-3,-1.8776705E-2,-4.4306464E-2,-3.7313897E-2,-1.1255238E-2,-1.9449959E-2,5.6899356E-4,1.2695177E-1,5.3552568E-2,-2.0740181E-2,2.1423832E-1,-2.0729268E-2,5.59546E-2,-6.109854E-3,1.5867002E-2,-1.1710537E-2,4.2246222E-2,2.5764557E-3,5.796897E-3,2.1297995E-2,2.262865E-2,7.5265616E-2,1.9946832E-2,6.8929896E-2,3.163078E-2,4.6693344E-2,4.0699165E-2,4.9010415E-2,4.5423966E-2,1.1487695E-1,6.3424446E-2,3.0447638E-2,7.075893E-2,1.367883E-1,7.171429E-2,8.858281E-2,9.910434E-2,1.6096832E-1,1.1375679E-1,7.8893535E-2,1.3110891E-1,1.9409503E-1,1.7004924E-1,1.4899783E-1,3.9118927E-2,1.6944411E-1,1.7051628E-1,1.18557476E-1,1.8936111E-1,2.4325717E-2,2.1433917E-1,1.1549822E-1,-9.557409E-3,1.6411547E-1,2.4057947E-1,2.6589763E-1,3.001643E-1,2.3414886E-1,3.2336688E-1,3.8267526E-1,1.17361896E-1,-1.5858991E-1],"categories":[],"categories_nodes":[],"categories_segments":[],"categories_sizes":[],"default_left":[0,0,0,0,0,0,0,0,0,0,0,0,0,0,0,0,0,0,0,0,0,0,0,0,0,0,0,0,0,0,0,0,0,0,0,0,0,0,0,0,0,0,0,0,0,0,0,0,0,0,0,0,0,0,0,0,0,0,0,0,0,0,0,0,0,0,0,0,0,0,0,0,0,0,0,0,0,0,0,0,0,0,0,0,0,0,0,0,0,0,0,0,0,0,0,0,0,0,0,0,0,0,0,0,0,0,0,0,0,0,0,0,0,0,0,0,0,0,0,0,0,0,0,0,0,0,0],"id":14,"left_children":[1,3,5,7,9,11,13,15,17,19,21,23,25,27,29,31,33,35,37,39,41,43,45,47,49,51,53,55,57,59,61,63,65,67,69,71,73,75,77,79,81,83,85,87,89,91,93,95,97,99,101,103,105,107,109,111,113,115,117,119,121,123,125,-1,-1,-1,-1,-1,-1,-1,-1,-1,